{"learner":{"attributes":{},"feature_names":[],"feature_types":[],"gradient_booster":{"model":{"gbtree_model_param":{"num_parallel_tree":"1","num_trees":"100"},"iteration_indptr":[0,1,2,3,4,5,6,7,8,9,10,11,12,13,14,15,16,17,18,19,20,21,22,23,24,25,26,27,28,29,30,31,32,33,34,35,36,37,38,39,40,41,42,43,44,45,46,47,48,49,50,51,52,53,54,55,56,57,58,59,60,61,62,63,64,65,66,67,68,69,70,71,72,73,74,75,76,77,78,79,80,81,82,83,84,85,86,87,88,89,90,91,92,93,94,95,96,97,98,99,100],"tree_info":[0,0,0,0,0,0,0,0,0,0,0,0,0,0,0,0,0,0,0,0,0,0,0,0,0,0,0,0,0,0,0,0,0,0,0,0,0,0,0,0,0,0,0,0,0,0,0,0,0,0,0,0,0,0,0,0,0,0,0,0,0,0,0,0,0,0,0,0,0,0,0,0,0,0,0,0,0,0,0,0,0,0,0,0,0,0,0,0,0,0,0,0,0,0,0,0,0,0,0,0],"trees":[{"base_weights":[-1.0373938E-7,-9.331065E-1,1.3502599E1,-3.5191896E0,1.1844548E0,6.3511167E0,1.6826033E1,-1.174196E0,-4.922469E-1,-1.3901533E-1,2.434284E0,-9.230462E-2,7.5121965E0,5.256052E0,1.4826955E0,-1.4320959E0,4.0266436E-1,3.1447032E-1,3.7580163E0,9.669272E-1,2.6552932E0,-1.6710064E0,-5.961367E-1,7.732505E-1,-1.4056762E-4,-7.6760375E-1,9.582672E-1,2.5907605E0,1.6172502E0,-5.324943E-1,-3.23046E-2,-2.0768736E-1,-1.7304612E-2,1.3179146E-1,3.295249E-1,-8.1985146E-2,1.7409194E-1,-3.2923648E-1,-4.5687392E-2,1.8022001E-1,5.303126E-1,8.0383736E-1,4.2695403E-2],"categories":[],"categories_nodes":[],"categories_segments":[],"categories_sizes":[],"default_left":[0,0,0,0,0,0,0,0,0,0,0,0,0,0,0,0,0,0,0,0,0,0,0,0,0,0,0,0,0,0,0,0,0,0,0,0,0,0,0,0,0,0,0],"id":0,"left_children":[1,3,5,7,9,11,13,-1,-1,15,17,-1,19,-1,-1,21,23,25,27,-1,-1,29,31,33,35,37,39,41,-1,-1,-1,-1,-1,-1,-1,-1,-1,-1,-1,-1,-1,-1,-1],"loss_changes":[3.313632E3,1.3513109E3,2.971831E2,7.589258E1,2.2529756E2,5.6431152E1,4.1481934E0,0E0,0E0,4.7505833E1,1.9524289E2,0E0,5.925537E0,0E0,0E0,2.9982414E0,7.165257E0,2.0241375E1,6.7987976E1,0E0,0E0,2.2470512E0,2.7071643E-1,2.232154E0,3.9636726E0,2.0654445E0,4.1473293E0,5.482254E0,0E0,0E0,0E0,0E0,0E0,0E0,0E0,0E0,0E0,0E0,0E0,0E0,0E0,0E0,0E0],"parents":[2147483647,0,0,1,1,2,2,3,3,4,4,5,5,6,6,9,9,10,10,12,12,15,15,16,16,17,17,18,18,21,21,22,22,23,23,24,24,25,25,26,26,27,27],"right_children":[2,4,6,8,10,12,14,-1,-1,16,18,-1,20,-1,-1,22,24,26,28,-1,-1,30,32,34,36,38,40,42,-1,-1,-1,-1,-1,-1,-1,-1,-1,-1,-1,-1,-1,-1,-1],"split_conditions":[1.3011929E0,-2.0000964E-1,1.8244095E0,-4.4363603E-1,7.842049E-2,-1.7589865E0,2.343694E0,-1.174196E0,-4.922469E-1,8.773706E-2,8.773706E-2,-9.230462E-2,-1.020297E0,5.256052E0,1.4826955E0,-2.8160766E-1,-4.4443566E-2,-6.509524E-1,5.865555E-1,9.669272E-1,2.6552932E0,6.797936E-2,-1.5360463E-1,-1.08359724E-1,7.6528285E-3,-1.3896418E0,8.5454446E-1,1.3679198E0,1.6172502E0,-5.324943E-1,-3.23046E-2,-2.0768736E-1,-1.7304612E-2,1.3179146E-1,3.295249E-1,-8.1985146E-2,1.7409194E-1,-3.2923648E-1,-4.5687392E-2,1.8022001E-1,5.303126E-1,8.0383736E-1,4.2695403E-2],"split_indices":[1,1,1,1,1,0,2,0,0,0,0,0,0,0,0,0,2,0,1,0,0,1,1,1,1,0,1,2,0,0,0,0,0,0,0,0,0,0,0,0,0,0,0],"split_type":[0,0,0,0,0,0,0,0,0,0,0,0,0,0,0,0,0,0,0,0,0,0,0,0,0,0,0,0,0,0,0,0,0,0,0,0,0,0,0,0,0,0,0],"sum_hessian":[2.61E2,2.45E2,1.6E1,1.1E2,1.35E2,6E0,1E1,9E1,2E1,6.6E1,6.9E1,1E0,5E0,9E0,1E0,1.9E1,4.7E1,2.7E1,4.2E1,2E0,3E0,1.4E1,5E0,2.4E1,2.3E1,1E1,1.7E1,2.6E1,1.6E1,1.3E1,1E0,4E0,1E0,1.3E1,1.1E1,1.6E1,7E0,6E0,4E0,1.3E1,4E0,2.5E1,1E0],"tree_param":{"num_deleted":"0","num_feature":"87","num_nodes":"43","size_leaf_vector":"1"}},{"base_weights":[4.261536E-2,-6.495299E-1,1.0055858E1,-2.4939487E0,8.3613133E-1,4.950055E0,3.7172508E0,-2.7526937E0,-3.5758835E-1,-1.10725075E-1,1.74399E0,-7.8458905E-2,5.862241E0,-8.837542E-1,-6.4695233E-1,-1.0419564E0,2.7162907E-1,4.928323E-1,2.9119492E0,7.7354175E-1,2.057852E0,-1.4850109E0,-6.891571E-1,8.779952E-2,7.2493154E-1,-5.7140666E-1,9.4138414E-1,1.9055225E0,4.050887E0,-1.24930434E-1,-4.7345218E-1,-2.1939959E-1,-2.7458884E-2,1.2693243E-1,-4.3443248E-2,-4.3418385E-2,2.408884E-1,-2.4457568E-1,-3.4722462E-2,1.7699888E-1,5.8673394E-1,1.981797E-1,6.22893E-1,1.2499362E0,3.4760785E-1],"categories":[],"categories_nodes":[],"categories_segments":[],"categories_sizes":[],"default_left":[0,0,0,0,0,0,0,0,0,0,0,0,0,0,0,0,0,0,0,0,0,0,0,0,0,0,0,0,0,0,0,0,0,0,0,0,0,0,0,0,0,0,0,0,0],"id":1,"left_children":[1,3,5,7,9,11,-1,13,-1,15,17,-1,19,-1,-1,21,23,25,27,-1,-1,29,31,33,35,37,39,41,43,-1,-1,-1,-1,-1,-1,-1,-1,-1,-1,-1,-1,-1,-1,-1,-1],"loss_changes":[1.8223535E3,6.7616986E2,1.4133765E2,3.3776E1,1.1795991E2,3.4810684E1,0E0,4.126343E0,0E0,2.449512E1,1.0085596E2,0E0,1.9616852E0,0E0,0E0,2.1027794E0,4.0195403E0,1.7245733E1,3.3546234E1,0E0,0E0,1.3920784E-1,2.6072454E-1,2.8691351E0,1.0662413E0,1.1278725E0,7.7572575E0,3.0933533E0,5.2023315E-1,0E0,0E0,0E0,0E0,0E0,0E0,0E0,0E0,0E0,0E0,0E0,0E0,0E0,0E0,0E0,0E0],"parents":[2147483647,0,0,1,1,2,2,3,3,4,4,5,5,7,7,9,9,10,10,12,12,15,15,16,16,17,17,18,18,21,21,22,22,23,23,24,24,25,25,26,26,27,27,28,28],"right_children":[2,4,6,8,10,12,-1,14,-1,16,18,-1,20,-1,-1,22,24,26,28,-1,-1,30,32,34,36,38,40,42,44,-1,-1,-1,-1,-1,-1,-1,-1,-1,-1,-1,-1,-1,-1,-1,-1],"split_conditions":[1.3011929E0,-2.1277103E-1,1.8244095E0,-4.4363603E-1,7.842049E-2,-1.7589865E0,3.7172508E0,-7.151054E-1,-3.5758835E-1,8.773706E-2,4.5708176E-1,-7.8458905E-2,-1.020297E0,-8.837542E-1,-6.4695233E-1,-1.020297E0,8.812954E-3,-6.509524E-1,4.148569E-1,7.7354175E-1,2.057852E0,-7.239584E-2,4.9417347E-2,-3.5130128E-1,2.00001E0,-1.3896418E0,8.5454446E-1,2.00001E0,8.1024164E-1,-1.24930434E-1,-4.7345218E-1,-2.1939959E-1,-2.7458884E-2,1.2693243E-1,-4.3443248E-2,-4.3418385E-2,2.408884E-1,-2.4457568E-1,-3.4722462E-2,1.7699888E-1,5.8673394E-1,1.981797E-1,6.22893E-1,1.2499362E0,3.4760785E-1],"split_indices":[1,1,1,1,1,0,0,1,0,0,0,0,0,0,0,0,1,0,1,0,0,1,1,2,66,0,1,76,2,0,0,0,0,0,0,0,0,0,0,0,0,0,0,0,0],"split_type":[0,0,0,0,0,0,0,0,0,0,0,0,0,0,0,0,0,0,0,0,0,0,0,0,0,0,0,0,0,0,0,0,0,0,0,0,0,0,0,0,0,0,0,0,0],"sum_hessian":[2.61E2,2.45E2,1.6E1,1.09E2,1.36E2,6E0,1E1,9E1,1.9E1,6.7E1,6.9E1,1E0,5E0,6.5E1,2.5E1,1.9E1,4.8E1,3.4E1,3.5E1,2E0,3E0,7E0,1.2E1,3.5E1,1.3E1,1E1,2.4E1,2E1,1.5E1,1E0,6E0,1.1E1,1E0,1.4E1,2.1E1,1E0,1.2E1,6E0,4E0,1.9E1,5E0,3E0,1.7E1,1.4E1,1E0],"tree_param":{"num_deleted":"0","num_feature":"87","num_nodes":"45","size_leaf_vector":"1"}},{"base_weights":[5.6245465E-2,-4.5283976E-1,7.4196997E0,-1.7536217E0,6.121576E-1,5.687482E0,4.082267E0,-1.9437065E0,-8.4641516E-1,2.4061735E-1,1.8628384E0,1.4359332E0,1.9892124E0,-6.267127E-1,-4.682859E-1,-4.6242294E-1,-9.09565E-1,-7.456873E-1,5.0781244E-1,3.542824E-1,2.7969642E0,-6.669009E-2,6.1883336E-1,-1.9099396E-1,3.51707E-2,-3.181171E-1,-6.073376E-1,2.1933269E-2,-9.08446E-1,3.484846E-2,9.1694015E-1,-1.7421715E-1,8.321702E-1,1.8783851E0,3.8252122E0,-1.9685024E-1,-3.9829303E-2,5.6612495E-2,-2.008127E-2,-3.2561183E-1,-1.7737913E-1,6.2300168E-2,-6.335426E-2,2.0630728E-1,5.673771E-1,1.800909E-2,-8.3976656E-2,3.1081113E-1,6.450062E-2,2.9485548E-1,7.8303295E-1,2.8556994E-1,1.2299099E0],"categories":[],"categories_nodes":[],"categories_segments":[],"categories_sizes":[],"default_left":[0,0,0,0,0,0,0,0,0,0,0,0,0,0,0,0,0,0,0,0,0,0,0,0,0,0,0,0,0,0,0,0,0,0,0,0,0,0,0,0,0,0,0,0,0,0,0,0,0,0,0,0,0],"id":2,"left_children":[1,3,5,7,9,11,-1,13,15,17,19,21,-1,-1,-1,23,25,27,29,31,33,-1,-1,-1,-1,-1,35,37,39,41,43,45,47,49,51,-1,-1,-1,-1,-1,-1,-1,-1,-1,-1,-1,-1,-1,-1,-1,-1,-1,-1],"loss_changes":[9.854998E2,3.4186447E2,1.048255E2,1.7496368E1,6.2748013E1,5.0631287E1,0E0,1.8012085E0,8.862591E-2,2.8313461E1,4.2693703E1,4.616375E0,0E0,0E0,0E0,5.7958853E-1,1.3090515E-1,2.8934746E0,1.6222271E1,3.428304E0,1.0760788E1,0E0,0E0,0E0,0E0,0E0,9.827089E-2,8.673886E-2,4.2450047E-1,1.7445946E0,8.750664E0,1.9013178E-1,6.5799093E-1,5.2980614E0,2.4070053E0,0E0,0E0,0E0,0E0,0E0,0E0,0E0,0E0,0E0,0E0,0E0,0E0,0E0,0E0,0E0,0E0,0E0,0E0],"parents":[2147483647,0,0,1,1,2,2,3,3,4,4,5,5,7,7,8,8,9,9,10,10,11,11,15,15,16,16,17,17,18,18,19,19,20,20,26,26,27,27,28,28,29,29,30,30,31,31,32,32,33,33,34,34],"right_children":[2,4,6,8,10,12,-1,14,16,18,20,22,-1,-1,-1,24,26,28,30,32,34,-1,-1,-1,-1,-1,36,38,40,42,44,46,48,50,52,-1,-1,-1,-1,-1,-1,-1,-1,-1,-1,-1,-1,-1,-1,-1,-1,-1,-1],"split_conditions":[1.3011929E0,-2.0000964E-1,3.3418536E0,-4.4363603E-1,4.8446444E-1,-1.020297E0,4.082267E0,-7.2554654E-1,2.00001E0,-2.8160766E-1,8.773706E-2,-1.7589865E0,1.9892124E0,-6.267127E-1,-4.682859E-1,-2.8160766E-1,4.5708176E-1,2.00001E0,8.812954E-3,-6.509524E-1,2.00001E0,-6.669009E-2,6.1883336E-1,-1.9099396E-1,3.51707E-2,-3.181171E-1,1.4936376E-1,2.0422181E-2,-1.020297E0,1.5981849E-1,1.1957712E0,8.114497E-1,1.1216995E0,8.264265E-1,5.865555E-1,-1.9685024E-1,-3.9829303E-2,5.6612495E-2,-2.008127E-2,-3.2561183E-1,-1.7737913E-1,6.2300168E-2,-6.335426E-2,2.0630728E-1,5.673771E-1,1.800909E-2,-8.3976656E-2,3.1081113E-1,6.450062E-2,2.9485548E-1,7.8303295E-1,2.8556994E-1,1.2299099E0],"split_indices":[1,1,1,1,1,0,0,1,72,0,0,0,0,0,0,0,0,83,1,0,59,0,0,0,0,0,2,2,0,2,0,2,2,0,1,0,0,0,0,0,0,0,0,0,0,0,0,0,0,0,0,0,0],"split_type":[0,0,0,0,0,0,0,0,0,0,0,0,0,0,0,0,0,0,0,0,0,0,0,0,0,0,0,0,0,0,0,0,0,0,0,0,0,0,0,0,0,0,0,0,0,0,0,0,0,0,0,0,0],"sum_hessian":[2.61E2,2.45E2,1.6E1,1.1E2,1.35E2,1.4E1,2E0,9E1,2E1,1.05E2,3E1,3E0,1.1E1,6.2E1,2.8E1,4E0,1.6E1,2.2E1,8.3E1,1.2E1,1.8E1,1E0,2E0,3E0,1E0,9E0,7E0,4E0,1.8E1,3.9E1,4.4E1,6E0,6E0,1.1E1,7E0,6E0,1E0,1E0,3E0,1E1,8E0,2.3E1,1.6E1,3.7E1,7E0,2E0,4E0,4E0,2E0,6E0,5E0,1E0,6E0],"tree_param":{"num_deleted":"0","num_feature":"87","num_nodes":"53","size_leaf_vector":"1"}},{"base_weights":[7.000879E-2,-3.1128353E-1,5.5834146E0,-1.2599247E0,4.4026116E-1,4.150661E0,3.2658136E0,-4.2356977E-1,-7.6985914E-1,1.6138647E-1,1.3976227E0,1.554587E0,1.740059E0,-3.548607E-1,-8.242397E-1,-2.1792774E-1,5.308698E-1,2.717934E-1,2.0943677E0,-5.6686595E-2,6.490959E-1,-1.480203E-1,2.989508E-2,-9.356581E-1,-5.746881E-1,-7.173157E-1,-7.462752E-3,2.4709289E-1,1.2711352E0,-1.3137592E-1,6.361351E-1,1.4046934E0,2.8670835E0,-2.9115987E-1,-6.711173E-2,-1.8403938E-1,-3.3854917E-2,-2.5073E-1,-1.1418089E-1,-7.2309084E-2,6.794337E-2,1.21368594E-1,-5.0151285E-2,2.4709289E-1,4.9946758E-1,1.4407254E-2,-6.382225E-2,2.3621647E-1,5.160046E-2,-6.817038E-2,4.7211248E-1,2.4273442E-1,9.136474E-1],"categories":[],"categories_nodes":[],"categories_segments":[],"categories_sizes":[],"default_left":[0,0,0,0,0,0,0,0,0,0,0,0,0,0,0,0,0,0,0,0,0,0,0,0,0,0,0,0,0,0,0,0,0,0,0,0,0,0,0,0,0,0,0,0,0,0,0,0,0,0,0,0,0],"id":3,"left_children":[1,3,5,7,9,11,-1,-1,13,15,17,-1,19,21,23,25,27,29,31,-1,-1,-1,-1,33,35,37,39,41,43,45,47,49,51,-1,-1,-1,-1,-1,-1,-1,-1,-1,-1,-1,-1,-1,-1,-1,-1,-1,-1,-1,-1],"loss_changes":[5.5251953E2,1.7593945E2,8.397089E1,7.0310974E0,3.6618217E1,2.8273743E1,0E0,0E0,3.3940887E-1,1.525192E1,2.374767E1,0E0,5.3115444E0,3.6400795E-1,1.2960052E-1,5.670245E0,1.1239774E1,1.9931612E0,6.098152E0,0E0,0E0,0E0,0E0,1.5532303E-1,1.09855175E-1,3.2004738E-1,2.1855845E0,2.7422147E0,1.2717686E0,1.1239478E-1,3.5597944E-1,3.6674385E0,4.7310638E-1,0E0,0E0,0E0,0E0,0E0,0E0,0E0,0E0,0E0,0E0,0E0,0E0,0E0,0E0,0E0,0E0,0E0,0E0,0E0,0E0],"parents":[2147483647,0,0,1,1,2,2,3,3,4,4,5,5,8,8,9,9,10,10,12,12,13,13,14,14,15,15,16,16,17,17,18,18,23,23,24,24,25,25,26,26,27,27,28,28,29,29,30,30,31,31,32,32],"right_children":[2,4,6,8,10,12,-1,-1,14,16,18,-1,20,22,24,26,28,30,32,-1,-1,-1,-1,34,36,38,40,42,44,46,48,50,52,-1,-1,-1,-1,-1,-1,-1,-1,-1,-1,-1,-1,-1,-1,-1,-1,-1,-1,-1,-1],"split_conditions":[1.3011929E0,-2.7077731E-1,3.3418536E0,-6.547789E-1,4.8446444E-1,7.174037E-1,3.2658136E0,-4.2356977E-1,2.00001E0,4.5708176E-1,8.773706E-2,1.554587E0,-1.7589865E0,-2.8160766E-1,8.264265E-1,-6.509524E-1,1.7355078E-1,-6.509524E-1,2.00001E0,-5.6686595E-2,6.490959E-1,-1.480203E-1,2.989508E-2,-2.8237855E-1,-3.1087637E-1,6.797936E-2,-3.179144E-2,1.1335305E-1,8.264265E-1,8.114497E-1,1.1216995E0,4.5708176E-1,5.865555E-1,-2.9115987E-1,-6.711173E-2,-1.8403938E-1,-3.3854917E-2,-2.5073E-1,-1.1418089E-1,-7.2309084E-2,6.794337E-2,1.21368594E-1,-5.0151285E-2,2.4709289E-1,4.9946758E-1,1.4407254E-2,-6.382225E-2,2.3621647E-1,5.160046E-2,-6.817038E-2,4.7211248E-1,2.4273442E-1,9.136474E-1],"split_indices":[1,1,1,1,1,2,0,0,72,0,0,0,0,0,0,0,1,0,59,0,0,0,0,1,2,1,1,2,0,2,2,0,1,0,0,0,0,0,0,0,0,0,0,0,0,0,0,0,0,0,0,0,0],"split_type":[0,0,0,0,0,0,0,0,0,0,0,0,0,0,0,0,0,0,0,0,0,0,0,0,0,0,0,0,0,0,0,0,0,0,0,0,0,0,0,0,0,0,0,0,0,0,0,0,0,0,0,0,0],"sum_hessian":[2.61E2,2.45E2,1.6E1,1.08E2,1.37E2,1.4E1,2E0,8.1E1,2.7E1,1.07E2,3E1,9E0,5E0,4E0,2.3E1,5.3E1,5.4E1,1.2E1,1.8E1,1E0,4E0,3E0,1E0,1.4E1,9E0,1.5E1,3.8E1,4E1,1.4E1,6E0,6E0,1.1E1,7E0,1.3E1,1E0,8E0,1E0,1E1,5E0,1.9E1,1.9E1,2.9E1,1.1E1,8E0,6E0,2E0,4E0,4E0,2E0,1E0,1E1,1E0,6E0],"tree_param":{"num_deleted":"0","num_feature":"87","num_nodes":"53","size_leaf_vector":"1"}},{"base_weights":[7.3976316E-2,-2.1330753E-1,4.226791E0,-8.816025E-1,3.337076E-1,3.048596E0,2.6126509E0,-1.0453907E0,-6.1814904E-1,1.2506695E-1,1.0363592E0,1.0755265E0,1.1004902E0,-3.4649664E-1,-2.6682732E-1,-7.175371E-1,-3.9316207E-1,-2.9632196E-1,3.2817173E-1,2.08594E-1,1.5481796E0,-4.8183635E-2,4.2741424E-1,-1.2365702E-1,-2.2863568E-1,-5.223248E-1,-2.3466608E-1,9.602065E-2,-4.1612795E-1,1.5090613E-1,8.928013E-1,-3.458659E-2,1.8138008E-1,1.0169472E0,6.454518E-1,-6.865516E-2,-1.7460233E-1,2.541082E-2,-8.555251E-2,-3.0331457E-2,6.3430265E-2,-1.9828428E-1,-8.921811E-2,1.3059896E-1,1.6438084E-2,1.778232E-1,3.710331E-1,-5.784445E-2,2.2999002E-2,1.2079015E-1,4.692465E-1],"categories":[],"categories_nodes":[],"categories_segments":[],"categories_sizes":[],"default_left":[0,0,0,0,0,0,0,0,0,0,0,0,0,0,0,0,0,0,0,0,0,0,0,0,0,0,0,0,0,0,0,0,0,0,0,0,0,0,0,0,0,0,0,0,0,0,0,0,0,0,0],"id":4,"left_children":[1,3,5,7,9,11,-1,13,15,17,19,21,-1,-1,-1,23,25,27,29,31,33,-1,-1,-1,-1,35,37,39,41,43,45,47,-1,49,-1,-1,-1,-1,-1,-1,-1,-1,-1,-1,-1,-1,-1,-1,-1,-1,-1],"loss_changes":[3.1347717E2,9.02238E1,6.3222565E1,4.143509E0,1.9808216E1,1.4395447E1,0E0,1.17996216E-1,7.2413826E-1,9.169373E0,1.2810741E1,2.3870478E0,0E0,0E0,0E0,9.424877E-2,2.0497632E-1,1.6851313E0,7.0717072E0,1.2728244E0,3.9016533E0,0E0,0E0,0E0,0E0,6.9305897E-3,1.6933393E-1,2.2613561E-1,5.8828735E-1,1.5070008E0,1.0215187E0,1.7320774E-1,0E0,3.4041033E0,0E0,0E0,0E0,0E0,0E0,0E0,0E0,0E0,0E0,0E0,0E0,0E0,0E0,0E0,0E0,0E0,0E0],"parents":[2147483647,0,0,1,1,2,2,3,3,4,4,5,5,7,7,8,8,9,9,10,10,11,11,15,15,16,16,17,17,18,18,19,19,20,20,25,25,26,26,27,27,28,28,29,29,30,30,31,31,33,33],"right_children":[2,4,6,8,10,12,-1,14,16,18,20,22,-1,-1,-1,24,26,28,30,32,34,-1,-1,-1,-1,36,38,40,42,44,46,48,-1,50,-1,-1,-1,-1,-1,-1,-1,-1,-1,-1,-1,-1,-1,-1,-1,-1,-1],"split_conditions":[1.3011929E0,-2.0000964E-1,3.3418536E0,-6.988636E-1,4.8446444E-1,-2.8160766E-1,2.6126509E0,-7.684712E-1,-3.798291E-1,8.773706E-2,8.773706E-2,-1.7589865E0,1.1004902E0,-3.4649664E-1,-2.6682732E-1,-1.3131357E0,-2.8160766E-1,2.00001E0,2.1647543E-1,-2.8160766E-1,2.00001E0,-4.8183635E-2,4.2741424E-1,-1.2365702E-1,-2.2863568E-1,-5.783314E-1,2.00001E0,2.0628391E-1,-1.3896418E0,-7.462575E-1,8.264265E-1,-1.3896418E0,1.8138008E-1,8.264265E-1,6.454518E-1,-6.865516E-2,-1.7460233E-1,2.541082E-2,-8.555251E-2,-3.0331457E-2,6.3430265E-2,-1.9828428E-1,-8.921811E-2,1.3059896E-1,1.6438084E-2,1.778232E-1,3.710331E-1,-5.784445E-2,2.2999002E-2,1.2079015E-1,4.692465E-1],"split_indices":[1,1,1,1,1,0,0,1,1,0,0,0,0,0,0,2,0,83,1,0,59,0,0,0,0,2,72,2,0,2,0,0,0,0,0,0,0,0,0,0,0,0,0,0,0,0,0,0,0,0,0],"split_type":[0,0,0,0,0,0,0,0,0,0,0,0,0,0,0,0,0,0,0,0,0,0,0,0,0,0,0,0,0,0,0,0,0,0,0,0,0,0,0,0,0,0,0,0,0,0,0,0,0,0,0],"sum_hessian":[2.61E2,2.45E2,1.6E1,1.1E2,1.35E2,1.4E1,2E0,6.6E1,4.4E1,1.05E2,3E1,4E0,1E1,3.5E1,3.1E1,2.9E1,1.5E1,3.4E1,7.1E1,1.2E1,1.8E1,1E0,3E0,5E0,2.4E1,7E0,8E0,8E0,2.6E1,5.5E1,1.6E1,8E0,4E0,1.1E1,7E0,2E0,5E0,1E0,7E0,3E0,5E0,7E0,1.9E1,1.3E1,4.2E1,1E1,6E0,3E0,5E0,6E0,5E0],"tree_param":{"num_deleted":"0","num_feature":"87","num_nodes":"51","size_leaf_vector":"1"}},{"base_weights":[6.951956E-2,-9.803876E-2,4.301793E0,-4.221813E-1,6.0819674E-1,2.7645903E0,2.0901208E0,-6.8089586E-1,-1.09680496E-1,3.2941684E-1,1.3281884E0,3.5989103E-1,1.0390906E0,-2.4543515E-1,-5.872148E-1,-4.3569776E-1,6.2535563E-3,4.659199E-1,-1.4262302E-1,2.8911886E-1,1.6167902E0,-1.9817142E-1,-4.5809272E-1,-1.3752976E-1,-4.9776497E-1,-8.344021E-2,2.2017458E-1,2.561878E-1,7.779372E-1,-2.4764901E-1,-2.218587E-3,1.557842E-1,1.3923034E-1,-3.4495786E-2,1.7322128E0,-1.433519E-1,-4.620066E-2,-6.692137E-2,-1.8112976E-2,-5.492411E-2,-1.5825528E-1,-1.1916645E-1,-9.510001E-3,-6.794079E-2,7.7930845E-2,4.2430405E-3,1.278632E-1,8.972977E-2,2.9772937E-1,-5.386305E-3,-8.336929E-2,1.6222317E-2,-2.8590204E-2,-1.1348391E-2,5.7885576E-2,5.554534E-1,1.7942448E-1],"categories":[],"categories_nodes":[],"categories_segments":[],"categories_sizes":[],"default_left":[0,0,0,0,0,0,0,0,0,0,0,0,0,0,0,0,0,0,0,0,0,0,0,0,0,0,0,0,0,0,0,0,0,0,0,0,0,0,0,0,0,0,0,0,0,0,0,0,0,0,0,0,0,0,0,0,0],"id":5,"left_children":[1,3,5,7,9,11,-1,13,15,17,19,-1,-1,-1,21,23,25,27,29,31,33,-1,35,37,39,41,43,45,47,49,51,-1,53,-1,55,-1,-1,-1,-1,-1,-1,-1,-1,-1,-1,-1,-1,-1,-1,-1,-1,-1,-1,-1,-1,-1,-1],"loss_changes":[1.8621973E2,5.817377E1,2.1709595E1,1.3992962E1,1.5620012E1,4.596676E0,0E0,7.408142E-1,3.0264452E0,3.8681097E0,6.129856E0,0E0,0E0,0E0,2.6571465E-1,3.2017803E-1,1.1696143E0,2.8109436E0,2.058962E-1,1.3469207E-1,3.5972443E0,0E0,7.653284E-2,1.9530691E-2,6.258726E-2,6.855177E-1,3.7715638E-1,1.1874111E0,1.5519056E0,5.059409E-2,4.1832395E-2,0E0,5.4858238E-2,0E0,1.0574455E0,0E0,0E0,0E0,0E0,0E0,0E0,0E0,0E0,0E0,0E0,0E0,0E0,0E0,0E0,0E0,0E0,0E0,0E0,0E0,0E0,0E0,0E0],"parents":[2147483647,0,0,1,1,2,2,3,3,4,4,5,5,7,7,8,8,9,9,10,10,14,14,15,15,16,16,17,17,18,18,19,19,20,20,22,22,23,23,24,24,25,25,26,26,27,27,28,28,29,29,30,30,32,32,34,34],"right_children":[2,4,6,8,10,12,-1,14,16,18,20,-1,-1,-1,22,24,26,28,30,32,34,-1,36,38,40,42,44,46,48,50,52,-1,54,-1,56,-1,-1,-1,-1,-1,-1,-1,-1,-1,-1,-1,-1,-1,-1,-1,-1,-1,-1,-1,-1,-1,-1],"split_conditions":[2.0842776E0,6.797936E-2,3.3418536E0,-3.9955124E-1,8.264265E-1,4.5708176E-1,2.0901208E0,-7.684712E-1,-2.8160766E-1,1.3679198E0,2.2923681E-1,3.5989103E-1,1.0390906E0,-2.4543515E-1,8.264265E-1,2.00001E0,-3.4111694E-2,5.888757E-1,-1.3896418E0,8.074074E-2,2.00001E0,-1.9817142E-1,-4.25074E-1,-2.6043253E-2,-5.783314E-1,2.00001E0,2.00001E0,8.773706E-2,2.00001E0,1.4855702E0,1.9719704E0,1.557842E-1,-1.3224288E0,-3.4495786E-2,1.5111755E0,-1.433519E-1,-4.620066E-2,-6.692137E-2,-1.8112976E-2,-5.492411E-2,-1.5825528E-1,-1.1916645E-1,-9.510001E-3,-6.794079E-2,7.7930845E-2,4.2430405E-3,1.278632E-1,8.972977E-2,2.9772937E-1,-5.386305E-3,-8.336929E-2,1.6222317E-2,-2.8590204E-2,-1.1348391E-2,5.7885576E-2,5.554534E-1,1.7942448E-1],"split_indices":[1,1,1,1,0,0,0,1,0,2,1,0,0,0,0,73,1,1,0,1,58,0,1,2,2,55,68,0,59,2,2,0,2,0,1,0,0,0,0,0,0,0,0,0,0,0,0,0,0,0,0,0,0,0,0,0,0],"split_type":[0,0,0,0,0,0,0,0,0,0,0,0,0,0,0,0,0,0,0,0,0,0,0,0,0,0,0,0,0,0,0,0,0,0,0,0,0,0,0,0,0,0,0,0,0,0,0,0,0,0,0,0,0,0,0,0,0],"sum_hessian":[2.61E2,2.52E2,9E0,1.73E2,7.9E1,7E0,2E0,9.4E1,7.9E1,5.8E1,2.1E1,3E0,4E0,3.5E1,5.9E1,2E1,5.9E1,4.5E1,1.3E1,5E0,1.6E1,3.5E1,2.4E1,4E0,1.6E1,4.2E1,1.7E1,2.8E1,1.7E1,7E0,6E0,1E0,4E0,1E0,1.5E1,2.2E1,2E0,1E0,3E0,2E0,1.4E1,5E0,3.7E1,1E0,1.6E1,1.2E1,1.6E1,6E0,1.1E1,1E0,6E0,4E0,2E0,1E0,3E0,1.3E1,2E0],"tree_param":{"num_deleted":"0","num_feature":"87","num_nodes":"57","size_leaf_vector":"1"}},{"base_weights":[6.3015535E-2,-6.755565E-2,3.360165E0,-3.0156174E-1,4.4225204E-1,2.1100855E0,1.6720967E0,-4.7131404E-1,-6.024262E-2,1.0988517E-1,7.7187175E-1,2.789154E-1,7.8970873E-1,-5.538669E-1,-3.7790102E-1,-3.5160246E-1,1.485298E-2,2.5602877E-1,-1.3446602E-1,5.597998E-1,1.8803129E0,-3.438616E-2,-5.6914437E-1,-4.0345043E-1,-1.9014165E-1,-1.3449574E-1,-1.1239731E-1,1.9954443E-1,-3.654791E-2,4.6070926E-2,4.9714038E-1,-2.1381164E-1,-4.899592E-2,2.0376213E-1,6.264365E-1,7.384861E-1,4.784654E-1,-3.869444E-2,-1.726485E-1,-2.6232237E-2,-1.2262981E-1,-6.1043624E-2,-1.4517296E-2,-3.6399367E-3,-5.6883145E-2,-1.1732974E-2,1.22907735E-1,-3.3431128E-2,2.1037303E-2,-8.952277E-2,2.759748E-2,7.998137E-2,2.0497264E-1,-8.902116E-2,-4.1014075E-2,-2.455035E-2,3.2056905E-2,1.3241659E-1,2.7177883E-2,7.622542E-2,2.0802689E-1,1.4666462E-2,2.0064297E-1],"categories":[],"categories_nodes":[],"categories_segments":[],"categories_sizes":[],"default_left":[0,0,0,0,0,0,0,0,0,0,0,0,0,0,0,0,0,0,0,0,0,0,0,0,0,0,0,0,0,0,0,0,0,0,0,0,0,0,0,0,0,0,0,0,0,0,0,0,0,0,0,0,0,0,0,0,0,0,0,0,0,0,0],"id":6,"left_children":[1,3,5,7,9,11,-1,13,15,17,19,-1,-1,21,23,25,27,29,31,33,35,-1,37,39,41,43,-1,45,47,49,51,53,55,57,59,-1,61,-1,-1,-1,-1,-1,-1,-1,-1,-1,-1,-1,-1,-1,-1,-1,-1,-1,-1,-1,-1,-1,-1,-1,-1,-1,-1],"loss_changes":[1.1302133E2,3.0315784E1,1.59095E1,7.0994263E0,8.679558E0,2.484478E0,0E0,5.772667E-1,1.602451E0,1.4985522E0,8.350174E0,0E0,0E0,2.8371334E-1,1.6794157E-1,2.4691701E-2,5.673979E-1,1.2933012E0,9.8030925E-2,7.0273685E-1,3.7116241E0,0E0,6.55365E-2,3.8166046E-2,5.2778125E-3,1.793139E-2,0E0,6.680086E-1,3.8327855E-1,2.6473254E-1,3.3268213E-1,1.0579199E-2,5.4806232E-2,1.4825729E-1,5.4714394E-1,0E0,2.1260601E-1,0E0,0E0,0E0,0E0,0E0,0E0,0E0,0E0,0E0,0E0,0E0,0E0,0E0,0E0,0E0,0E0,0E0,0E0,0E0,0E0,0E0,0E0,0E0,0E0,0E0,0E0],"parents":[2147483647,0,0,1,1,2,2,3,3,4,4,5,5,7,7,8,8,9,9,10,10,13,13,14,14,15,15,16,16,17,17,18,18,19,19,20,20,22,22,23,23,24,24,25,25,27,27,28,28,29,29,30,30,31,31,32,32,33,33,34,34,36,36],"right_children":[2,4,6,8,10,12,-1,14,16,18,20,-1,-1,22,24,26,28,30,32,34,36,-1,38,40,42,44,-1,46,48,50,52,54,56,58,60,-1,62,-1,-1,-1,-1,-1,-1,-1,-1,-1,-1,-1,-1,-1,-1,-1,-1,-1,-1,-1,-1,-1,-1,-1,-1,-1,-1],"split_conditions":[2.0842776E0,6.797936E-2,3.3418536E0,-3.2762346E-1,4.5708176E-1,4.5708176E-1,1.6720967E0,4.5708176E-1,-6.509524E-1,1.2749889E0,8.6614573E-1,2.789154E-1,7.8970873E-1,2.00001E0,-5.863315E-1,2.00001E0,-7.4161094E-1,6.4770555E-1,3.4292912E-1,1.7355078E-1,1.5111755E0,-3.438616E-2,2.00001E0,2.00001E0,-3.1087637E-1,-1.020297E0,-1.1239731E-1,-1.6868626E-1,-7.007559E-2,2.00001E0,8.417831E-1,-1.3896418E0,-2.8160766E-1,8.074074E-2,2.00001E0,7.384861E-1,1.1957712E0,-3.869444E-2,-1.726485E-1,-2.6232237E-2,-1.2262981E-1,-6.1043624E-2,-1.4517296E-2,-3.6399367E-3,-5.6883145E-2,-1.1732974E-2,1.22907735E-1,-3.3431128E-2,2.1037303E-2,-8.952277E-2,2.759748E-2,7.998137E-2,2.0497264E-1,-8.902116E-2,-4.1014075E-2,-2.455035E-2,3.2056905E-2,1.3241659E-1,2.7177883E-2,7.622542E-2,2.0802689E-1,1.4666462E-2,2.0064297E-1],"split_indices":[1,1,1,1,0,0,0,0,0,2,1,0,0,85,1,73,2,2,1,1,1,0,35,48,2,0,0,1,1,59,1,0,0,1,58,0,0,0,0,0,0,0,0,0,0,0,0,0,0,0,0,0,0,0,0,0,0,0,0,0,0,0,0],"split_type":[0,0,0,0,0,0,0,0,0,0,0,0,0,0,0,0,0,0,0,0,0,0,0,0,0,0,0,0,0,0,0,0,0,0,0,0,0,0,0,0,0,0,0,0,0,0,0,0,0,0,0,0,0,0,0,0,0,0,0,0,0,0,0],"sum_hessian":[2.61E2,2.52E2,9E0,1.73E2,7.9E1,7E0,2E0,1.01E2,7.2E1,4E1,3.9E1,3E0,4E0,5.1E1,5E1,1.4E1,5.8E1,2.5E1,1.5E1,3.4E1,5E0,2E0,4.9E1,4.3E1,7E0,2E0,1.2E1,1.2E1,4.6E1,1.4E1,1.1E1,7E0,8E0,6E0,2.8E1,3E0,2E0,1E0,4.8E1,1E0,4.2E1,6E0,1E0,1E0,1E0,6E0,6E0,2.7E1,1.9E1,1E0,1.3E1,6E0,5E0,2E0,5E0,7E0,1E0,1E0,5E0,5E0,2.3E1,1E0,1E0],"tree_param":{"num_deleted":"0","num_feature":"87","num_nodes":"63","size_leaf_vector":"1"}},{"base_weights":[5.8212314E-2,-4.351877E-2,2.6261876E0,-2.142213E-1,3.2830322E-1,1.6106377E0,1.3376775E0,-3.3452913E-1,-4.31854E-2,7.378284E-1,1.6024491E-1,2.1615945E-1,6.0017854E-1,-4.2970926E-1,-2.7839464E-1,-2.5764975E-1,1.2071387E-2,4.510525E-1,1.4751848E0,3.6584437E-2,3.0087048E-1,-3.0666664E-1,-1.4577653E-1,-3.0068892E-1,-1.6265763E-1,-2.8349274E-1,-1.1570829E-1,9.77466E-2,-6.846579E-2,6.0041785E-2,5.252518E-1,5.723267E-1,4.0669537E-1,1.7922421E-1,-2.0718003E-2,2.8616247E-1,2.1047515E-1,-9.89553E-2,-3.35121E-2,-1.2412388E-2,-9.1417454E-2,-9.408206E-3,-5.1295698E-2,-3.125186E-2,-9.268183E-2,-3.4807206E-3,-4.3962836E-2,-1.4208914E-2,6.5582514E-2,-2.702438E-2,8.6999774E-2,-1.3722826E-2,3.3165265E-2,3.8372397E-2,1.8417865E-1,1.2466479E-2,1.7054644E-1,-5.059559E-2,1.2222649E-2,-1.1254732E-2,1.1349104E-1],"categories":[],"categories_nodes":[],"categories_segments":[],"categories_sizes":[],"default_left":[0,0,0,0,0,0,0,0,0,0,0,0,0,0,0,0,0,0,0,0,0,0,0,0,0,0,0,0,0,0,0,0,0,0,0,0,0,0,0,0,0,0,0,0,0,0,0,0,0,0,0,0,0,0,0,0,0,0,0,0,0],"id":7,"left_children":[1,3,5,7,9,11,-1,13,15,17,19,-1,-1,21,23,25,27,29,31,33,35,37,-1,39,41,43,45,47,49,51,53,-1,55,-1,57,-1,59,-1,-1,-1,-1,-1,-1,-1,-1,-1,-1,-1,-1,-1,-1,-1,-1,-1,-1,-1,-1,-1,-1,-1,-1],"loss_changes":[6.855993E1,1.6128483E1,1.1430641E1,3.5659447E0,5.3876953E0,1.3353367E0,0E0,4.2534542E-1,8.682047E-1,4.198105E0,9.976027E-1,0E0,0E0,9.9978924E-2,1.2396908E-1,2.2220492E-2,4.137947E-1,4.9069238E-1,1.9973078E0,1.0407581E0,1.3930044E0,2.6433587E-2,0E0,4.4953346E-2,8.852541E-3,2.2574008E-2,1.1139967E-2,5.18962E-1,2.6632366E-1,2.6429223E-2,4.500022E-1,0E0,1.5360776E-1,0E0,2.7963257E-1,0E0,1.0546896E0,0E0,0E0,0E0,0E0,0E0,0E0,0E0,0E0,0E0,0E0,0E0,0E0,0E0,0E0,0E0,0E0,0E0,0E0,0E0,0E0,0E0,0E0,0E0,0E0],"parents":[2147483647,0,0,1,1,2,2,3,3,4,4,5,5,7,7,8,8,9,9,10,10,13,13,14,14,15,15,16,16,17,17,18,18,19,19,20,20,21,21,23,23,24,24,25,25,26,26,27,27,28,28,29,29,30,30,32,32,34,34,36,36],"right_children":[2,4,6,8,10,12,-1,14,16,18,20,-1,-1,22,24,26,28,30,32,34,36,38,-1,40,42,44,46,48,50,52,54,-1,56,-1,58,-1,60,-1,-1,-1,-1,-1,-1,-1,-1,-1,-1,-1,-1,-1,-1,-1,-1,-1,-1,-1,-1,-1,-1,-1,-1],"split_conditions":[2.0842776E0,6.797936E-2,3.3418536E0,-3.2762346E-1,-4.2099944E-1,4.5708176E-1,1.3376775E0,-7.684712E-1,-6.509524E-1,8.6614573E-1,8.773706E-2,2.1615945E-1,6.0017854E-1,-8.1590915E-1,1.1957712E0,3.2015465E-2,-1.1081383E-2,2.00001E0,1.5111755E0,2.00001E0,2.00001E0,-7.7543193E-1,-1.4577653E-1,2.00001E0,-1.452532E0,-2.9397982E-1,4.2364922E-1,-1.6868626E-1,1.8325741E0,-1.3224288E0,2.00001E0,5.723267E-1,1.1957712E0,1.7922421E-1,-1.020297E0,2.8616247E-1,3.7049276E-1,-9.89553E-2,-3.35121E-2,-1.2412388E-2,-9.1417454E-2,-9.408206E-3,-5.1295698E-2,-3.125186E-2,-9.268183E-2,-3.4807206E-3,-4.3962836E-2,-1.4208914E-2,6.5582514E-2,-2.702438E-2,8.6999774E-2,-1.3722826E-2,3.3165265E-2,3.8372397E-2,1.8417865E-1,1.2466479E-2,1.7054644E-1,-5.059559E-2,1.2222649E-2,-1.1254732E-2,1.1349104E-1],"split_indices":[1,1,1,1,2,0,0,1,0,1,0,0,0,2,0,1,2,76,1,70,75,1,0,40,2,1,2,1,2,2,58,0,0,0,0,0,2,0,0,0,0,0,0,0,0,0,0,0,0,0,0,0,0,0,0,0,0,0,0,0,0],"split_type":[0,0,0,0,0,0,0,0,0,0,0,0,0,0,0,0,0,0,0,0,0,0,0,0,0,0,0,0,0,0,0,0,0,0,0,0,0,0,0,0,0,0,0,0,0,0,0,0,0,0,0,0,0,0,0,0,0,0,0,0,0],"sum_hessian":[2.61E2,2.52E2,9E0,1.73E2,7.9E1,7E0,2E0,1.01E2,7.2E1,2.2E1,5.7E1,3E0,4E0,3.5E1,6.6E1,1.4E1,5.8E1,1.7E1,5E0,3.1E1,2.6E1,1.3E1,2.2E1,5.4E1,1.2E1,1.1E1,3E0,2.8E1,3E1,3E0,1.4E1,3E0,2E0,2E0,2.9E1,2E0,2.4E1,1.1E1,2E0,1E0,5.3E1,1E0,1.1E1,2E0,9E0,1E0,2E0,1.3E1,1.5E1,2.9E1,1E0,1E0,2E0,3E0,1.1E1,1E0,1E0,8E0,2.1E1,1E1,1.4E1],"tree_param":{"num_deleted":"0","num_feature":"87","num_nodes":"61","size_leaf_vector":"1"}},{"base_weights":[5.2877594E-2,-2.6416605E-2,2.053733E0,-1.5054353E-1,2.5925717E-1,1.2294888E0,1.070142E0,-2.3851135E-1,-3.0500595E-2,1.2549217E-1,5.879655E-1,1.6752349E-1,4.5613587E-1,-2.7992922E-1,-1.5480278E-1,-1.338728E-1,2.593041E-2,1.838592E-1,-6.274176E-2,3.5200733E-1,1.1585194E0,-2.2112465E-1,-3.305006E-1,-2.4499169E-1,-1.2458505E-1,-3.34754E-2,-1.8221176E-1,1.9360147E-1,-2.0827394E-2,2.2893E-1,1.3699137E-1,-5.343059E-2,-1.5088797E-2,-5.4300625E-2,4.0980178E-1,4.435532E-1,3.4569135E-1,-1.0550523E-2,-6.7708194E-2,-2.2018997E-2,-1.0082025E-1,-2.183559E-2,-8.7078884E-2,-4.300445E-2,-1.7224012E-2,-6.4143546E-2,2.2306856E-2,3.8485482E-2,-6.2406737E-2,-3.7935592E-2,7.147561E-2,-5.192769E-2,3.3401498E-3,-2.8617526E-3,7.919222E-2,3.1097247E-3,-4.0445138E-2,2.2075796E-2,-4.651108E-2,6.1971046E-2,1.8376695E-1,1.0596514E-2,1.449646E-1],"categories":[],"categories_nodes":[],"categories_segments":[],"categories_sizes":[],"default_left":[0,0,0,0,0,0,0,0,0,0,0,0,0,0,0,0,0,0,0,0,0,0,0,0,0,0,0,0,0,0,0,0,0,0,0,0,0,0,0,0,0,0,0,0,0,0,0,0,0,0,0,0,0,0,0,0,0,0,0,0,0,0,0],"id":8,"left_children":[1,3,5,7,9,11,-1,13,15,17,19,-1,-1,21,23,25,27,29,31,33,35,37,39,41,43,45,47,49,51,-1,53,-1,55,57,59,-1,61,-1,-1,-1,-1,-1,-1,-1,-1,-1,-1,-1,-1,-1,-1,-1,-1,-1,-1,-1,-1,-1,-1,-1,-1,-1,-1],"loss_changes":[4.1622185E1,9.01036E0,8.088409E0,1.8618307E0,3.31188E0,7.130375E-1,0E0,3.103032E-1,4.4680956E-1,6.2678844E-1,2.5539832E0,0E0,0E0,1.2616491E-1,6.758863E-2,1.24934256E-1,3.9602876E-1,1.0628159E0,7.427423E-2,4.2145205E-1,1.0494785E0,2.0952344E-2,2.3996592E-2,4.124111E-2,2.8320044E-2,2.1035784E-1,1.7094052E-1,1.873236E-1,1.9659011E-1,0E0,7.653986E-1,0E0,3.492141E-2,5.0057016E-2,4.9155664E-1,0E0,1.1098182E-1,0E0,0E0,0E0,0E0,0E0,0E0,0E0,0E0,0E0,0E0,0E0,0E0,0E0,0E0,0E0,0E0,0E0,0E0,0E0,0E0,0E0,0E0,0E0,0E0,0E0,0E0],"parents":[2147483647,0,0,1,1,2,2,3,3,4,4,5,5,7,7,8,8,9,9,10,10,13,13,14,14,15,15,16,16,17,17,18,18,19,19,20,20,21,21,22,22,23,23,24,24,25,25,26,26,27,27,28,28,30,30,32,32,33,33,34,34,36,36],"right_children":[2,4,6,8,10,12,-1,14,16,18,20,-1,-1,22,24,26,28,30,32,34,36,38,40,42,44,46,48,50,52,-1,54,-1,56,58,60,-1,62,-1,-1,-1,-1,-1,-1,-1,-1,-1,-1,-1,-1,-1,-1,-1,-1,-1,-1,-1,-1,-1,-1,-1,-1,-1,-1],"split_conditions":[2.0842776E0,7.842049E-2,3.3418536E0,-3.2762346E-1,8.264265E-1,4.5708176E-1,1.070142E0,-6.988636E-1,8.773706E-2,1.3679198E0,7.280908E-1,1.6752349E-1,4.5613587E-1,-6.099279E-1,-2.8160766E-1,4.2364922E-1,-7.462575E-1,2.00001E0,-1.7589865E0,2.00001E0,1.5111755E0,2.00001E0,2.00001E0,-1.187679E0,-4.25074E-1,-4.595193E-1,2.00001E0,-1.3735409E0,2.00001E0,2.2893E-1,5.0993556E-1,-5.343059E-2,8.773706E-2,2.2923681E-1,1.1957712E0,4.435532E-1,1.1957712E0,-1.0550523E-2,-6.7708194E-2,-2.2018997E-2,-1.0082025E-1,-2.183559E-2,-8.7078884E-2,-4.300445E-2,-1.7224012E-2,-6.4143546E-2,2.2306856E-2,3.8485482E-2,-6.2406737E-2,-3.7935592E-2,7.147561E-2,-5.192769E-2,3.3401498E-3,-2.8617526E-3,7.919222E-2,3.1097247E-3,-4.0445138E-2,2.2075796E-2,-4.651108E-2,6.1971046E-2,1.8376695E-1,1.0596514E-2,1.449646E-1],"split_indices":[1,1,1,1,0,0,0,1,0,2,1,0,0,2,0,2,2,75,0,58,1,40,23,2,1,2,81,2,55,0,2,0,0,1,0,0,0,0,0,0,0,0,0,0,0,0,0,0,0,0,0,0,0,0,0,0,0,0,0,0,0,0,0],"split_type":[0,0,0,0,0,0,0,0,0,0,0,0,0,0,0,0,0,0,0,0,0,0,0,0,0,0,0,0,0,0,0,0,0,0,0,0,0,0,0,0,0,0,0,0,0,0,0,0,0,0,0,0,0,0,0,0,0,0,0,0,0,0,0],"sum_hessian":[2.61E2,2.52E2,9E0,1.76E2,7.6E1,7E0,2E0,1.01E2,7.5E1,5.5E1,2.1E1,3E0,4E0,6.6E1,3.5E1,2.6E1,4.9E1,4.2E1,1.3E1,1.6E1,5E0,3.3E1,3.3E1,7E0,2.8E1,9E0,1.7E1,1E1,3.9E1,2E0,4E1,3E0,1E1,2E0,1.4E1,3E0,2E0,1E0,3.2E1,1E0,3.2E1,2E0,5E0,2.1E1,7E0,3E0,6E0,1E0,1.6E1,1E0,9E0,6E0,3.3E1,1.9E1,2.1E1,9E0,1E0,1E0,1E0,8E0,6E0,1E0,1E0],"tree_param":{"num_deleted":"0","num_feature":"87","num_nodes":"63","size_leaf_vector":"1"}},{"base_weights":[4.570768E-2,-1.0120217E-2,1.8195084E0,-7.86545E-2,3.602179E-1,9.991555E-1,8.5611343E-1,-1.7058776E-1,3.5702684E-3,7.885962E-1,1.4846304E-1,1.2983058E-1,4.2638588E-1,-2.4408907E-1,-1.4087278E-1,-6.755174E-2,8.238613E-2,4.1498947E-1,1.0495464E0,3.1036048E-3,2.5728863E-1,-1.0227085E-3,-2.5287688E-1,-1.6970539E-1,-8.9286394E-2,-8.117561E-2,-4.855666E-2,6.450237E-2,1.5721637E-1,1.4680578E-1,-4.678345E-3,3.9972353E-1,4.310948E-1,-9.4219394E-2,5.3299285E-2,-6.220198E-2,3.3847415E-1,-5.254984E-3,-7.837664E-2,-1.5565754E-3,-5.1950715E-2,-3.4620795E-2,-1.8256284E-2,-7.875152E-2,-9.542829E-3,3.7824824E-2,-1.96989E-2,9.007073E-3,1.5388471E-1,-5.227715E-2,-7.5472957E-3,3.621565E-2,1.6169518E-1],"categories":[],"categories_nodes":[],"categories_segments":[],"categories_sizes":[],"default_left":[0,0,0,0,0,0,0,0,0,0,0,0,0,0,0,0,0,0,0,0,0,0,0,0,0,0,0,0,0,0,0,0,0,0,0,0,0,0,0,0,0,0,0,0,0,0,0,0,0,0,0,0,0],"id":9,"left_children":[1,3,5,7,9,11,-1,13,15,17,19,-1,-1,21,23,25,27,29,31,33,35,-1,37,39,41,-1,43,45,-1,-1,-1,47,-1,49,-1,-1,51,-1,-1,-1,-1,-1,-1,-1,-1,-1,-1,-1,-1,-1,-1,-1,-1],"loss_changes":[2.5963636E1,6.500451E0,3.9359894E0,1.6333944E0,3.5113702E0,8.19448E-1,0E0,1.8839192E-1,6.502028E-1,8.318558E-1,4.4212866E-1,0E0,0E0,5.8359385E-2,9.640026E-2,2.2211632E-1,4.0062517E-1,2.3176813E-1,1.1879578E0,2.3759341E-1,6.737169E-1,0E0,4.866731E-2,2.5883555E-2,1.451093E-2,0E0,1.9588327E-1,4.411231E-1,0E0,0E0,0E0,1.5203726E-1,0E0,4.5364037E-2,0E0,0E0,5.462035E-1,0E0,0E0,0E0,0E0,0E0,0E0,0E0,0E0,0E0,0E0,0E0,0E0,0E0,0E0,0E0,0E0],"parents":[2147483647,0,0,1,1,2,2,3,3,4,4,5,5,7,7,8,8,9,9,10,10,13,13,14,14,15,15,16,16,17,17,18,18,19,19,20,20,22,22,23,23,24,24,26,26,27,27,31,31,33,33,36,36],"right_children":[2,4,6,8,10,12,-1,14,16,18,20,-1,-1,22,24,26,28,30,32,34,36,-1,38,40,42,-1,44,46,-1,-1,-1,48,-1,50,-1,-1,52,-1,-1,-1,-1,-1,-1,-1,-1,-1,-1,-1,-1,-1,-1,-1,-1],"split_conditions":[2.6898632E0,4.8446444E-1,3.3418536E0,-3.2762346E-1,-4.2099944E-1,4.5708176E-1,8.5611343E-1,-2.8160766E-1,4.5708176E-1,8.6614573E-1,2.00001E0,1.2983058E-1,4.2638588E-1,2.00001E0,-6.988636E-1,-1.7589865E0,1.2785202E0,-4.906976E-1,-9.33095E-1,-2.8160766E-1,-1.1897412E-1,-1.0227085E-3,2.00001E0,2.00001E0,-8.4081465E-1,-8.117561E-2,2.00001E0,1.1335305E-1,1.5721637E-1,1.4680578E-1,-4.678345E-3,1.1957712E0,4.310948E-1,1.0891737E0,5.3299285E-2,-6.220198E-2,2.00001E0,-5.254984E-3,-7.837664E-2,-1.5565754E-3,-5.1950715E-2,-3.4620795E-2,-1.8256284E-2,-7.875152E-2,-9.542829E-3,3.7824824E-2,-1.96989E-2,9.007073E-3,1.5388471E-1,-5.227715E-2,-7.5472957E-3,3.621565E-2,1.6169518E-1],"split_indices":[1,1,1,1,2,0,0,0,0,1,60,0,0,78,1,0,2,2,2,0,2,0,85,50,2,0,55,2,0,0,0,0,0,2,0,0,59,0,0,0,0,0,0,0,0,0,0,0,0,0,0,0,0],"split_type":[0,0,0,0,0,0,0,0,0,0,0,0,0,0,0,0,0,0,0,0,0,0,0,0,0,0,0,0,0,0,0,0,0,0,0,0,0,0,0,0,0,0,0,0,0,0,0,0,0,0,0,0,0],"sum_hessian":[2.61E2,2.54E2,7E0,2.15E2,3.9E1,5E0,2E0,1.01E2,1.14E2,1.2E1,2.7E1,3E0,2E0,2.7E1,7.4E1,6E1,5.4E1,6E0,6E0,1.2E1,1.5E1,1E0,2.6E1,4.6E1,2.8E1,4E0,5.6E1,5.3E1,1E0,5E0,1E0,3E0,3E0,8E0,4E0,2E0,1.3E1,1E0,2.5E1,1E0,4.5E1,1.3E1,1.5E1,3E0,5.3E1,3.6E1,1.7E1,1E0,2E0,3E0,5E0,7E0,6E0],"tree_param":{"num_deleted":"0","num_feature":"87","num_nodes":"53","size_leaf_vector":"1"}},{"base_weights":[3.998191E-2,-4.416926E-3,1.450197E0,-5.76591E-2,2.669698E-1,7.921114E-1,6.848908E-1,-1.10087015E-1,2.4789896E-2,1.6837053E-1,2.491511E-1,1.0061861E-1,3.4110874E-1,5.3378396E-2,-1.2115288E-1,2.2904742E-1,-9.126271E-3,5.672877E-2,2.8306302E-1,-1.24103E-2,1.8909256E-1,8.322414E-2,-1.2521881E-1,2.7726877E-1,-4.5208097E-2,-5.7933737E-2,1.0232378E-2,9.520187E-2,1.0142035E-2,3.3437267E-1,-8.494282E-2,2.0048093E-2,-7.31751E-2,1.1777938E-2,7.331371E-2,3.3067705E-3,3.4144092E-2,8.282204E-3,-3.9203882E-2,-1.771617E-3,9.185302E-2,-1.7702918E-2,2.776383E-2,-2.2297941E-2,3.7505545E-2,7.264875E-2,2.5762883E-1,7.6559545E-3,-4.5880225E-2],"categories":[],"categories_nodes":[],"categories_segments":[],"categories_sizes":[],"default_left":[0,0,0,0,0,0,0,0,0,0,0,0,0,0,0,0,0,0,0,0,0,0,0,0,0,0,0,0,0,0,0,0,0,0,0,0,0,0,0,0,0,0,0,0,0,0,0,0,0],"id":10,"left_children":[1,3,5,7,9,11,-1,13,15,17,-1,-1,-1,19,21,23,25,27,29,31,33,35,37,39,-1,-1,41,-1,43,45,47,-1,-1,-1,-1,-1,-1,-1,-1,-1,-1,-1,-1,-1,-1,-1,-1,-1,-1],"loss_changes":[1.6410723E1,3.699944E0,2.5759163E0,9.277715E-1,2.1938565E0,5.6382227E-1,0E0,2.4343109E-1,5.840115E-1,4.5770764E-1,0E0,0E0,0E0,8.270281E-2,1.12632275E-1,2.6152205E-1,2.6198182E-1,2.3960167E-1,3.6828315E-1,1.4470795E-1,1.52569115E-2,5.37131E-3,1.0458827E-1,9.1853976E-2,0E0,0E0,3.873327E-1,0E0,1.8395412E-1,5.6570554E-1,2.6434341E-2,0E0,0E0,0E0,0E0,0E0,0E0,0E0,0E0,0E0,0E0,0E0,0E0,0E0,0E0,0E0,0E0,0E0,0E0],"parents":[2147483647,0,0,1,1,2,2,3,3,4,4,5,5,7,7,8,8,9,9,13,13,14,14,15,15,16,16,17,17,18,18,19,19,20,20,21,21,22,22,23,23,26,26,28,28,29,29,30,30],"right_children":[2,4,6,8,10,12,-1,14,16,18,-1,-1,-1,20,22,24,26,28,30,32,34,36,38,40,-1,-1,42,-1,44,46,48,-1,-1,-1,-1,-1,-1,-1,-1,-1,-1,-1,-1,-1,-1,-1,-1,-1,-1],"split_conditions":[2.6898632E0,3.9049426E-1,3.3418536E0,-1.5360463E-1,1.1957712E0,4.5708176E-1,6.848908E-1,2.00001E0,-7.462575E-1,4.5708176E-1,2.491511E-1,1.0061861E-1,3.4110874E-1,-1.8546616E-1,2.00001E0,2.8144246E-1,-1.3896418E0,2.00001E0,8.835476E-1,-3.5130128E-1,8.773706E-2,-6.509524E-1,2.00001E0,2.00001E0,-4.5208097E-2,-5.7933737E-2,4.2364922E-1,9.520187E-2,-2.8160766E-1,8.6614573E-1,1.7814848E0,2.0048093E-2,-7.31751E-2,1.1777938E-2,7.331371E-2,3.3067705E-3,3.4144092E-2,8.282204E-3,-3.9203882E-2,-1.771617E-3,9.185302E-2,-1.7702918E-2,2.776383E-2,-2.2297941E-2,3.7505545E-2,7.264875E-2,2.5762883E-1,7.6559545E-3,-4.5880225E-2],"split_indices":[1,1,1,1,0,0,0,71,2,0,0,0,0,2,81,1,0,70,1,2,0,0,72,86,0,0,2,0,0,1,1,0,0,0,0,0,0,0,0,0,0,0,0,0,0,0,0,0,0],"split_type":[0,0,0,0,0,0,0,0,0,0,0,0,0,0,0,0,0,0,0,0,0,0,0,0,0,0,0,0,0,0,0,0,0,0,0,0,0,0,0,0,0,0,0,0,0,0,0,0,0],"sum_hessian":[2.61E2,2.54E2,7E0,2.13E2,4.1E1,5E0,2E0,1.3E2,8.3E1,3.6E1,5E0,3E0,2E0,8E0,1.22E2,1.1E1,7.2E1,1.9E1,1.7E1,6E0,2E0,2E0,1.2E2,1E1,1E0,6E0,6.6E1,2E0,1.7E1,1.5E1,2E0,5E0,1E0,1E0,1E0,1E0,1E0,4E0,1.16E2,1E0,9E0,3.6E1,3E1,1E1,7E0,1.4E1,1E0,1E0,1E0],"tree_param":{"num_deleted":"0","num_feature":"87","num_nodes":"49","size_leaf_vector":"1"}},{"base_weights":[3.4909952E-2,-3.9731275E-4,1.1559653E0,-2.750341E-2,3.0295175E-1,6.2809944E-1,5.4791266E-1,-7.6767065E-2,3.42208E-2,5.9334815E-1,1.1537155E-1,7.7979475E-2,2.7288705E-1,-1.3463086E-1,-5.670371E-2,-4.0705305E-2,1.11370586E-1,6.2884256E-2,2.774036E-1,1.5919022E-2,2.4532175E-1,-1.017289E-1,-5.735601E-2,4.091647E-2,-6.573533E-2,2.252944E-2,-1.2068746E-1,6.814628E-2,3.1031492E-1,-1.15917124E-1,7.0146084E-2,3.4638387E-1,-3.899832E-2,-4.021419E-2,-2.1413397E-2,-4.883051E-3,4.821861E-2,-1.5663601E-2,-3.530379E-2,-6.844603E-3,7.886562E-2,2.1440202E-2,-4.5462407E-2,4.1949704E-2,-3.406613E-2,1.3027065E-1,3.7299413E-2,-7.5986986E-3,-4.456401E-2,3.1256534E-2,-2.9919627E-3,1.1633334E-1,2.712121E-2],"categories":[],"categories_nodes":[],"categories_segments":[],"categories_sizes":[],"default_left":[0,0,0,0,0,0,0,0,0,0,0,0,0,0,0,0,0,0,0,0,0,0,0,0,0,0,0,0,0,0,0,0,0,0,0,0,0,0,0,0,0,0,0,0,0,0,0,0,0,0,0,0,0],"id":11,"left_children":[1,3,5,7,9,11,-1,13,15,17,19,-1,-1,21,23,25,27,-1,-1,29,31,33,-1,35,37,39,41,43,45,47,49,51,-1,-1,-1,-1,-1,-1,-1,-1,-1,-1,-1,-1,-1,-1,-1,-1,-1,-1,-1,-1,-1],"loss_changes":[1.0370786E1,2.1050975E0,1.6839466E0,7.172057E-1,1.0754693E0,3.854487E-1,0E0,1.444493E-1,6.1148936E-1,8.233161E-1,1.7702901E-1,0E0,0E0,4.195708E-2,8.997491E-2,2.758322E-1,4.2601323E-1,0E0,0E0,7.247292E-2,2.7260938E-1,1.2992486E-2,0E0,6.428827E-2,5.7779133E-2,3.4386334E-1,1.531196E-1,5.889944E-1,1.5343553E-1,5.105015E-3,2.0131242E-2,1.7923415E-2,0E0,0E0,0E0,0E0,0E0,0E0,0E0,0E0,0E0,0E0,0E0,0E0,0E0,0E0,0E0,0E0,0E0,0E0,0E0,0E0,0E0],"parents":[2147483647,0,0,1,1,2,2,3,3,4,4,5,5,7,7,8,8,9,9,10,10,13,13,14,14,15,15,16,16,19,19,20,20,21,21,23,23,24,24,25,25,26,26,27,27,28,28,29,29,30,30,31,31],"right_children":[2,4,6,8,10,12,-1,14,16,18,20,-1,-1,22,24,26,28,-1,-1,30,32,34,-1,36,38,40,42,44,46,48,50,52,-1,-1,-1,-1,-1,-1,-1,-1,-1,-1,-1,-1,-1,-1,-1,-1,-1,-1,-1,-1,-1],"split_conditions":[2.6898632E0,8.5454446E-1,3.3418536E0,-1.5360463E-1,-4.2099944E-1,4.5708176E-1,5.4791266E-1,-7.6997936E-1,4.5708176E-1,-9.088865E-1,2.00001E0,7.7979475E-2,2.7288705E-1,-5.2667946E-2,2.00001E0,8.114497E-1,4.386111E-1,6.2884256E-2,2.774036E-1,1.2977124E0,8.264265E-1,8.773706E-2,-5.735601E-2,-1.8546616E-1,-2.9397982E-1,6.4770555E-1,2.00001E0,6.688762E-2,2.4547857E-1,-1.3896418E0,1.4855702E0,1.2285235E0,-3.899832E-2,-4.021419E-2,-2.1413397E-2,-4.883051E-3,4.821861E-2,-1.5663601E-2,-3.530379E-2,-6.844603E-3,7.886562E-2,2.1440202E-2,-4.5462407E-2,4.1949704E-2,-3.406613E-2,1.3027065E-1,3.7299413E-2,-7.5986986E-3,-4.456401E-2,3.1256534E-2,-2.9919627E-3,1.1633334E-1,2.712121E-2],"split_indices":[1,1,1,1,2,0,0,1,0,2,60,0,0,2,71,2,2,0,0,1,0,0,0,2,1,2,73,2,1,0,2,2,0,0,0,0,0,0,0,0,0,0,0,0,0,0,0,0,0,0,0,0,0],"split_type":[0,0,0,0,0,0,0,0,0,0,0,0,0,0,0,0,0,0,0,0,0,0,0,0,0,0,0,0,0,0,0,0,0,0,0,0,0,0,0,0,0,0,0,0,0,0,0,0,0,0,0,0,0],"sum_hessian":[2.61E2,2.54E2,7E0,2.34E2,2E1,5E0,2E0,1.3E2,1.04E2,7E0,1.3E1,3E0,2E0,3.2E1,9.8E1,5.3E1,5.1E1,4E0,3E0,8E0,5E0,2.2E1,1E1,8E0,9E1,3E1,2.3E1,4.3E1,8E0,2E0,6E0,4E0,1E0,9E0,1.3E1,6E0,2E0,7.3E1,1.7E1,2.6E1,4E0,3E0,2E1,3.1E1,1.2E1,4E0,4E0,1E0,1E0,4E0,2E0,3E0,1E0],"tree_param":{"num_deleted":"0","num_feature":"87","num_nodes":"53","size_leaf_vector":"1"}},{"base_weights":[2.9843347E-2,1.7520443E-3,9.215232E-1,-3.0756406E-2,1.6734862E-1,4.981475E-1,4.3833008E-1,-7.666117E-2,-2.77848E-3,3.7142295E-1,7.333813E-2,6.0434032E-2,2.1830979E-1,2.1248553E-2,-8.7682076E-2,-2.0073073E-2,9.123876E-2,1.6461182E-1,5.2517366E-1,2.5035682E-1,1.8651923E-2,1.2289286E-1,-1.3653004E-1,9.4276346E-2,-9.41355E-2,-5.3545074E-3,-1.1685864E-1,-1.2341352E-1,1.6603094E-1,-4.4612408E-2,9.980493E-2,-2.1166278E-2,6.362207E-1,5.99535E-2,1.4527303E-1,-1.1822471E-1,8.196729E-2,-2.510673E-2,1.0721136E-1,-6.9894455E-2,2.2923661E-2,8.1063155E-3,3.4318045E-2,1.0053749E-2,-3.067694E-2,7.839508E-2,-4.0389844E-3,-1.2783974E-1,-1.0949591E-2,-1.3620113E-2,-5.5887964E-2,6.911995E-2,-2.5402702E-2,-5.5196572E-2,1.8952752E-2,5.4240778E-2,2.0734315E-1,3.2397974E-2,-1.9830823E-2,-8.158969E-2,6.859961E-2,6.465906E-3,5.674038E-2],"categories":[],"categories_nodes":[],"categories_segments":[],"categories_sizes":[],"default_left":[0,0,0,0,0,0,0,0,0,0,0,0,0,0,0,0,0,0,0,0,0,0,0,0,0,0,0,0,0,0,0,0,0,0,0,0,0,0,0,0,0,0,0,0,0,0,0,0,0,0,0,0,0,0,0,0,0,0,0,0,0,0,0],"id":12,"left_children":[1,3,5,7,9,11,-1,13,15,17,19,-1,-1,21,23,25,27,29,31,33,35,37,39,41,43,45,47,49,51,53,-1,-1,55,57,-1,59,61,-1,-1,-1,-1,-1,-1,-1,-1,-1,-1,-1,-1,-1,-1,-1,-1,-1,-1,-1,-1,-1,-1,-1,-1,-1,-1],"loss_changes":[6.561079E0,1.3778855E0,1.0997071E0,2.7463144E-1,7.7853596E-1,2.6205647E-1,0E0,8.926645E-2,2.197141E-1,3.2691598E-1,2.8574473E-1,0E0,0E0,1.6111423E-1,9.459537E-2,1.6177237E-1,3.5763103E-1,2.6099387E-1,5.0796485E-1,2.8269738E-1,2.17684E-1,3.20542E-1,9.995701E-2,9.679161E-4,7.70272E-2,2.19756E-1,3.5724545E-1,2.0974882E-2,2.777125E-1,7.1716085E-2,0E0,0E0,2.5117159E-2,3.7417196E-2,0E0,4.8883867E-1,1.05988964E-1,0E0,0E0,0E0,0E0,0E0,0E0,0E0,0E0,0E0,0E0,0E0,0E0,0E0,0E0,0E0,0E0,0E0,0E0,0E0,0E0,0E0,0E0,0E0,0E0,0E0,0E0],"parents":[2147483647,0,0,1,1,2,2,3,3,4,4,5,5,7,7,8,8,9,9,10,10,13,13,14,14,15,15,16,16,17,17,18,18,19,19,20,20,21,21,22,22,23,23,24,24,25,25,26,26,27,27,28,28,29,29,32,32,33,33,35,35,36,36],"right_children":[2,4,6,8,10,12,-1,14,16,18,20,-1,-1,22,24,26,28,30,32,34,36,38,40,42,44,46,48,50,52,54,-1,-1,56,58,-1,60,62,-1,-1,-1,-1,-1,-1,-1,-1,-1,-1,-1,-1,-1,-1,-1,-1,-1,-1,-1,-1,-1,-1,-1,-1,-1,-1],"split_conditions":[2.6898632E0,3.9049426E-1,3.3418536E0,8.773706E-2,-4.2099944E-1,4.5708176E-1,4.3833008E-1,2.00001E0,4.556639E-1,-9.088865E-1,7.1648955E-1,6.0434032E-2,2.1830979E-1,7.899827E-1,2.00001E0,1.5981849E-1,-7.355596E-2,1.1957712E0,2.00001E0,5.888757E-1,7.327313E-1,2.0628391E-1,1.3308868E0,-6.509524E-1,2.00001E0,2.00001E0,1.6232762E-1,-3.798291E-1,2.930437E-1,7.280908E-1,9.980493E-2,-2.1166278E-2,4.5708176E-1,5.3550994E-1,1.4527303E-1,8.264265E-1,2.00001E0,-2.510673E-2,1.0721136E-1,-6.9894455E-2,2.2923661E-2,8.1063155E-3,3.4318045E-2,1.0053749E-2,-3.067694E-2,7.839508E-2,-4.0389844E-3,-1.2783974E-1,-1.0949591E-2,-1.3620113E-2,-5.5887964E-2,6.911995E-2,-2.5402702E-2,-5.5196572E-2,1.8952752E-2,5.4240778E-2,2.0734315E-1,3.2397974E-2,-1.9830823E-2,-8.158969E-2,6.859961E-2,6.465906E-3,5.674038E-2],"split_indices":[1,1,1,0,2,0,0,83,2,2,1,0,0,2,81,2,1,0,61,1,1,2,2,0,72,83,2,1,1,1,0,0,0,1,0,0,60,0,0,0,0,0,0,0,0,0,0,0,0,0,0,0,0,0,0,0,0,0,0,0,0,0,0],"split_type":[0,0,0,0,0,0,0,0,0,0,0,0,0,0,0,0,0,0,0,0,0,0,0,0,0,0,0,0,0,0,0,0,0,0,0,0,0,0,0,0,0,0,0,0,0,0,0,0,0,0,0,0,0,0,0,0,0,0,0,0,0,0,0],"sum_hessian":[2.61E2,2.54E2,7E0,2.13E2,4.1E1,5E0,2E0,8E1,1.33E2,1.2E1,2.9E1,3E0,2E0,8E0,7.2E1,1.13E2,2E1,6E0,6E0,6E0,2.3E1,5E0,3E0,2E0,7E1,9.9E1,1.4E1,5E0,1.5E1,3E0,3E0,1E0,5E0,4E0,2E0,7E0,1.6E1,3E0,2E0,2E0,1E0,1E0,1E0,4E0,6.6E1,2E0,9.7E1,2E0,1.2E1,3E0,2E0,1.2E1,3E0,1E0,2E0,1E0,4E0,3E0,1E0,5E0,2E0,1.1E1,5E0],"tree_param":{"num_deleted":"0","num_feature":"87","num_nodes":"63","size_leaf_vector":"1"}},{"base_weights":[2.5454478E-2,3.1038146E-3,7.347001E-1,-2.2455212E-2,1.261813E-1,4.1299784E-1,4.46326E-1,-6.024524E-2,-4.578128E-3,8.3367646E-2,3.8343987E-1,1.7192918E-1,8.626524E-2,-3.601687E-2,-8.206007E-2,-7.880852E-3,7.0652105E-2,1.6172777E-1,3.7967287E-2,2.274828E-2,1.2893905E-1,3.414245E-2,4.6769143E-3,-7.0043966E-2,-1.4272821E-2,7.194999E-3,-8.5884385E-2,1.2498963E-1,-1.3559571E-2,-1.1707783E-1,2.1795185E-1,-1.4991438E-1,6.899161E-2,-4.3949024E-3,-2.2031806E-2,9.376722E-3,-8.850644E-3,5.041614E-3,-2.6851635E-2,6.8903808E-3,4.2240117E-2,-1.2430729E-2,4.5963433E-3,-4.691706E-2,-5.7679657E-3,7.890418E-2,-4.1659642E-2,3.8949254E-3,-6.256237E-2,1.2292564E-3,3.844092E-2],"categories":[],"categories_nodes":[],"categories_segments":[],"categories_sizes":[],"default_left":[0,0,0,0,0,0,0,0,0,0,0,0,0,0,0,0,0,0,0,0,0,0,0,0,0,0,0,0,0,0,0,0,0,0,0,0,0,0,0,0,0,0,0,0,0,0,0,0,0,0,0],"id":13,"left_children":[1,3,5,7,9,-1,11,13,15,17,19,-1,21,23,25,27,-1,29,31,-1,-1,-1,-1,33,35,-1,37,39,41,43,45,47,49,-1,-1,-1,-1,-1,-1,-1,-1,-1,-1,-1,-1,-1,-1,-1,-1,-1,-1],"loss_changes":[4.1509724E0,8.0499727E-1,8.6655664E-1,1.4294618E-1,4.5265752E-1,0E0,2.7007902E-1,3.298503E-2,1.1683154E-1,1.3260517E-1,5.2969277E-2,0E0,4.065592E-3,2.4156429E-2,1.6253814E-2,1.1034773E-1,0E0,2.449756E-1,1.6189428E-1,0E0,0E0,0E0,0E0,1.3692379E-3,1.6176237E-2,0E0,1.4146924E-2,6.4443424E-3,1.1254157E-1,8.533452E-3,2.2947073E-1,4.0908173E-2,8.775233E-2,0E0,0E0,0E0,0E0,0E0,0E0,0E0,0E0,0E0,0E0,0E0,0E0,0E0,0E0,0E0,0E0,0E0,0E0],"parents":[2147483647,0,0,1,1,2,2,3,3,4,4,6,6,7,7,8,8,9,9,10,10,12,12,13,13,14,14,15,15,17,17,18,18,23,23,24,24,26,26,27,27,28,28,29,29,30,30,31,31,32,32],"right_children":[2,4,6,8,10,-1,12,14,16,18,20,-1,22,24,26,28,-1,30,32,-1,-1,-1,-1,34,36,-1,38,40,42,44,46,48,50,-1,-1,-1,-1,-1,-1,-1,-1,-1,-1,-1,-1,-1,-1,-1,-1,-1,-1],"split_conditions":[2.6898632E0,3.4292912E-1,-1.020297E0,-6.9074273E-1,1.1957712E0,4.1299784E-1,7.174037E-1,-6.099279E-1,1.5651159E0,2.7542448E-1,-1.0947483E0,1.7192918E-1,-2.8160766E-1,-7.8587306E-1,2.00001E0,2.00001E0,7.0652105E-2,-9.33095E-1,3.7049276E-1,2.274828E-2,1.2893905E-1,3.414245E-2,4.6769143E-3,2.00001E0,-1.2713169E0,7.194999E-3,2.00001E0,-6.509524E-1,4.5708176E-1,7.280908E-1,8.835476E-1,8.773706E-2,2.00001E0,-4.3949024E-3,-2.2031806E-2,9.376722E-3,-8.850644E-3,5.041614E-3,-2.6851635E-2,6.8903808E-3,4.2240117E-2,-1.2430729E-2,4.5963433E-3,-4.691706E-2,-5.7679657E-3,7.890418E-2,-4.1659642E-2,3.8949254E-3,-6.256237E-2,1.2292564E-3,3.844092E-2],"split_indices":[1,1,0,1,0,0,2,2,0,2,2,0,0,1,20,81,0,2,2,0,0,0,0,34,2,0,10,0,0,1,1,0,60,0,0,0,0,0,0,0,0,0,0,0,0,0,0,0,0,0,0],"split_type":[0,0,0,0,0,0,0,0,0,0,0,0,0,0,0,0,0,0,0,0,0,0,0,0,0,0,0,0,0,0,0,0,0,0,0,0,0,0,0,0,0,0,0,0,0,0,0,0,0,0,0],"sum_hessian":[2.61E2,2.54E2,7E0,2.11E2,4.3E1,1E0,6E0,6.7E1,1.44E2,3.8E1,5E0,4E0,2E0,3.3E1,3.4E1,1.43E2,1E0,1.3E1,2.5E1,1E0,4E0,1E0,1E0,1.2E1,2.1E1,1E0,3.3E1,5E0,1.38E2,2E0,1.1E1,3E0,2.2E1,1E0,1.1E1,5E0,1.6E1,1E0,3.2E1,1E0,4E0,7E1,6.8E1,1E0,1E0,1E1,1E0,1E0,2E0,1.1E1,1.1E1],"tree_param":{"num_deleted":"0","num_feature":"87","num_nodes":"51","size_leaf_vector":"1"}},{"base_weights":[2.0919034E-2,9.842599E-3,9.7390366E-1,-1.01009505E-2,1.8232216E-1,3.510481E-1,8.720856E-2,-3.1114064E-2,1.6464613E-2,7.3757365E-2,3.118817E-1,3.7812736E-2,-3.5904527E-2,7.815092E-2,-1.5958164E-2,1.2545037E-2,1.5066679E-1,6.6839024E-2,4.2604816E-1,-1.2569155E-2,1.4276624E-1,-7.9047725E-2,-2.9637992E-2,2.2474907E-2,2.2066107E-1,-1.5772508E-1,1.6654609E-2,-5.298285E-2,8.8669494E-2,5.8213953E-2,6.962037E-2,2.6162148E-2,2.557087E-2,1.9384384E-1,1.5798059E-1,1.6117478E-2,-6.1550047E-2,9.244573E-3,5.5000234E-2,5.0289407E-3,-2.6126618E-2,-6.3597993E-3,-2.1336712E-2,3.3380467E-2,-2.9336726E-2,-2.6214767E-2,7.937919E-2,5.3834334E-2,-6.023304E-2,9.860545E-2,-2.0040946E-4,-3.903365E-2,-3.4603644E-3,6.475449E-3,3.78593E-2,2.5197888E-2,3.9753914E-3,1.667576E-2,-4.902792E-3,-3.5410598E-2,1.01144604E-1],"categories":[],"categories_nodes":[],"categories_segments":[],"categories_sizes":[],"default_left":[0,0,0,0,0,0,0,0,0,0,0,0,0,0,0,0,0,0,0,0,0,0,0,0,0,0,0,0,0,0,0,0,0,0,0,0,0,0,0,0,0,0,0,0,0,0,0,0,0,0,0,0,0,0,0,0,0,0,0,0,0],"id":14,"left_children":[1,3,5,7,9,-1,-1,11,13,15,17,19,21,23,25,27,29,31,33,35,37,39,41,43,45,47,49,51,53,-1,55,57,-1,59,-1,-1,-1,-1,-1,-1,-1,-1,-1,-1,-1,-1,-1,-1,-1,-1,-1,-1,-1,-1,-1,-1,-1,-1,-1,-1,-1],"loss_changes":[2.756E0,8.962038E-1,6.2092543E-2,1.3113698E-1,3.5676777E-1,0E0,0E0,4.4612706E-2,2.0925146E-1,7.343476E-2,3.072312E-1,4.938426E-2,3.0911267E-2,2.8067893E-1,3.216423E-1,5.458071E-2,1.1100799E-2,1.5117433E-3,8.47137E-2,1.0039917E-1,7.9753585E-3,1.3016097E-2,3.665016E-2,2.9920408E-1,1.5846404E-1,2.2473529E-1,3.0831525E-1,1.768049E-2,9.863865E-3,0E0,2.1276623E-3,4.6603656E-3,0E0,2.185706E-1,0E0,0E0,0E0,0E0,0E0,0E0,0E0,0E0,0E0,0E0,0E0,0E0,0E0,0E0,0E0,0E0,0E0,0E0,0E0,0E0,0E0,0E0,0E0,0E0,0E0,0E0,0E0],"parents":[2147483647,0,0,1,1,2,2,3,3,4,4,7,7,8,8,9,9,10,10,11,11,12,12,13,13,14,14,15,15,16,16,17,17,18,18,19,19,20,20,21,21,22,22,23,23,24,24,25,25,26,26,27,27,28,28,30,30,31,31,33,33],"right_children":[2,4,6,8,10,-1,-1,12,14,16,18,20,22,24,26,28,30,32,34,36,38,40,42,44,46,48,50,52,54,-1,56,58,-1,60,-1,-1,-1,-1,-1,-1,-1,-1,-1,-1,-1,-1,-1,-1,-1,-1,-1,-1,-1,-1,-1,-1,-1,-1,-1,-1,-1],"split_conditions":[3.3418536E0,8.417831E-1,-1.020297E0,-1.5360463E-1,4.5708176E-1,3.510481E-1,8.720856E-2,2.00001E0,2.0422181E-2,2.00001E0,-9.088865E-1,-1.8546616E-1,-1.020297E0,-3.0483586E-1,2.0628391E-1,-2.8160766E-1,1.2285235E0,1.1957712E0,2.00001E0,-3.5130128E-1,8.773706E-2,2.00001E0,-2.9397982E-1,-7.4161094E-1,-6.509524E-1,-7.239584E-2,2.7542448E-1,8.114497E-1,5.816317E-1,5.8213953E-2,-2.8160766E-1,8.264265E-1,2.557087E-2,1.1957712E0,1.5798059E-1,1.6117478E-2,-6.1550047E-2,9.244573E-3,5.5000234E-2,5.0289407E-3,-2.6126618E-2,-6.3597993E-3,-2.1336712E-2,3.3380467E-2,-2.9336726E-2,-2.6214767E-2,7.937919E-2,5.3834334E-2,-6.023304E-2,9.860545E-2,-2.0040946E-4,-3.903365E-2,-3.4603644E-3,6.475449E-3,3.78593E-2,2.5197888E-2,3.9753914E-3,1.667576E-2,-4.902792E-3,-3.5410598E-2,1.01144604E-1],"split_indices":[1,1,0,1,0,0,0,71,2,60,2,2,0,2,2,0,2,0,75,2,0,13,1,2,0,1,2,2,2,0,0,0,0,0,0,0,0,0,0,0,0,0,0,0,0,0,0,0,0,0,0,0,0,0,0,0,0,0,0,0,0],"split_type":[0,0,0,0,0,0,0,0,0,0,0,0,0,0,0,0,0,0,0,0,0,0,0,0,0,0,0,0,0,0,0,0,0,0,0,0,0,0,0,0,0,0,0,0,0,0,0,0,0,0,0,0,0,0,0,0,0,0,0,0,0],"sum_hessian":[2.61E2,2.59E2,2E0,2.33E2,2.6E1,1E0,1E0,1.3E2,1.03E2,1.5E1,1.1E1,8E0,1.22E2,3.5E1,6.8E1,9E0,6E0,4E0,7E0,6E0,2E0,1.4E1,1.08E2,2.6E1,9E0,1.2E1,5.6E1,5E0,4E0,3E0,3E0,2E0,2E0,3E0,4E0,5E0,1E0,1E0,1E0,1E0,1.3E1,9.1E1,1.7E1,1.5E1,1.1E1,1E0,8E0,1E0,1.1E1,2E0,5.4E1,1E0,4E0,2E0,2E0,2E0,1E0,1E0,1E0,1E0,2E0],"tree_param":{"num_deleted":"0","num_feature":"87","num_nodes":"61","size_leaf_vector":"1"}},{"base_weights":[1.8108115E-2,8.695655E-3,8.278186E-1,-6.5611284E-3,1.4059904E-1,2.9839098E-1,7.412739E-2,-2.6212906E-2,1.3314691E-2,5.7206884E-2,2.4007201E-1,8.308918E-2,-3.281024E-2,5.535424E-3,9.2124514E-2,8.965611E-3,1.1795057E-1,5.425606E-2,3.2619798E-1,2.935648E-3,5.6694604E-2,2.7812077E-2,-3.8317423E-2,1.02679685E-1,-4.206794E-4,-4.417026E-2,7.093553E-2,4.5115758E-2,5.602765E-2,2.2237778E-2,2.0456698E-2,1.5212393E-1,4.0021762E-1,-2.228254E-2,1.2242139E-2,3.5717156E-2,-1.2722982E-2,3.7047237E-3,-1.7268155E-2,-3.3178568E-2,-2.6298666E-3,5.180359E-3,3.028741E-2,5.583477E-3,2.5241377E-2,1.4174366E-2,-4.1673663E-3,-3.0099107E-2,8.0915645E-2,2.6424123E-2,1.3686955E-1],"categories":[],"categories_nodes":[],"categories_segments":[],"categories_sizes":[],"default_left":[0,0,0,0,0,0,0,0,0,0,0,0,0,0,0,0,0,0,0,0,0,0,0,0,0,0,0,0,0,0,0,0,0,0,0,0,0,0,0,0,0,0,0,0,0,0,0,0,0,0,0],"id":15,"left_children":[1,3,5,7,9,-1,-1,11,13,15,17,19,21,23,-1,25,27,29,31,33,-1,-1,35,-1,37,39,41,-1,43,45,-1,47,49,-1,-1,-1,-1,-1,-1,-1,-1,-1,-1,-1,-1,-1,-1,-1,-1,-1,-1],"loss_changes":[1.9895997E0,5.2415204E-1,4.486108E-2,9.174829E-2,2.102384E-1,0E0,0E0,8.781629E-2,2.6567933E-1,4.582815E-2,1.7434472E-1,5.8859E-2,8.097181E-2,2.3078796E-1,0E0,3.6061503E-2,5.6336448E-3,7.141698E-4,4.2196512E-2,1.7651388E-2,0E0,0E0,7.460743E-2,0E0,8.389227E-2,1.3140771E-2,6.3128583E-3,0E0,2.641161E-3,3.3671013E-3,0E0,1.4581032E-1,4.723555E-2,0E0,0E0,0E0,0E0,0E0,0E0,0E0,0E0,0E0,0E0,0E0,0E0,0E0,0E0,0E0,0E0,0E0,0E0],"parents":[2147483647,0,0,1,1,2,2,3,3,4,4,7,7,8,8,9,9,10,10,11,11,12,12,13,13,15,15,16,16,17,17,18,18,19,19,22,22,24,24,25,25,26,26,28,28,29,29,31,31,32,32],"right_children":[2,4,6,8,10,-1,-1,12,14,16,18,20,22,24,-1,26,28,30,32,34,-1,-1,36,-1,38,40,42,-1,44,46,-1,48,50,-1,-1,-1,-1,-1,-1,-1,-1,-1,-1,-1,-1,-1,-1,-1,-1,-1,-1],"split_conditions":[3.3418536E0,8.417831E-1,-1.020297E0,4.5708176E-1,4.5708176E-1,2.9839098E-1,7.412739E-2,2.00001E0,1.2785202E0,2.00001E0,-9.088865E-1,-2.8160766E-1,2.00001E0,2.00001E0,9.2124514E-2,-2.8160766E-1,1.2285235E0,1.1957712E0,2.00001E0,-2.6043253E-2,5.6694604E-2,2.7812077E-2,2.00001E0,1.02679685E-1,1.5981849E-1,8.114497E-1,5.816317E-1,4.5115758E-2,2.343694E0,8.264265E-1,2.0456698E-2,1.1957712E0,8.6614573E-1,-2.228254E-2,1.2242139E-2,3.5717156E-2,-1.2722982E-2,3.7047237E-3,-1.7268155E-2,-3.3178568E-2,-2.6298666E-3,5.180359E-3,3.028741E-2,5.583477E-3,2.5241377E-2,1.4174366E-2,-4.1673663E-3,-3.0099107E-2,8.0915645E-2,2.6424123E-2,1.3686955E-1],"split_indices":[1,1,0,0,0,0,0,73,2,60,2,0,81,75,0,0,2,0,75,2,0,0,67,0,2,2,2,0,2,0,0,0,1,0,0,0,0,0,0,0,0,0,0,0,0,0,0,0,0,0,0],"split_type":[0,0,0,0,0,0,0,0,0,0,0,0,0,0,0,0,0,0,0,0,0,0,0,0,0,0,0,0,0,0,0,0,0,0,0,0,0,0,0,0,0,0,0,0,0,0,0,0,0,0,0],"sum_hessian":[2.61E2,2.59E2,2E0,2.33E2,2.6E1,1E0,1E0,1.17E2,1.16E2,1.5E1,1.1E1,6E0,1.11E2,1.14E2,2E0,9E0,6E0,4E0,7E0,4E0,2E0,4E0,1.07E2,1E0,1.13E2,5E0,4E0,3E0,3E0,2E0,2E0,3E0,4E0,1E0,3E0,2E0,1.05E2,9.3E1,2E1,1E0,4E0,2E0,2E0,2E0,1E0,1E0,1E0,1E0,2E0,1E0,3E0],"tree_param":{"num_deleted":"0","num_feature":"87","num_nodes":"51","size_leaf_vector":"1"}},{"base_weights":[1.638331E-2,8.39034E-3,7.0364636E-1,-3.1951915E-3,1.1278302E-1,2.5363255E-1,6.300831E-2,-4.76131E-3,5.4491475E-2,4.4745173E-2,1.8843174E-1,-7.001344E-2,-6.061463E-4,1.9199318E-3,9.341403E-2,4.407215E-2,2.5510252E-1,4.925108E-3,-7.792479E-2,8.72778E-2,-3.2536832E-3,-7.755884E-2,3.5707984E-2,3.2791443E-2,3.5791397E-2,1.8902143E-2,1.6365433E-2,1.1919117E-1,3.1281108E-1,-1.3388041E-2,-3.280039E-2,-3.8790036E-2,-2.7457578E-4,-6.6996575E-3,-2.820182E-2,1.6626079E-2,-2.7145387E-3,1.3564397E-2,2.541733E-3,1.2048197E-2,-3.5422326E-3,-2.5584126E-2,6.473256E-2,2.246046E-2,1.0607393E-1],"categories":[],"categories_nodes":[],"categories_segments":[],"categories_sizes":[],"default_left":[0,0,0,0,0,0,0,0,0,0,0,0,0,0,0,0,0,0,0,0,0,0,0,0,0,0,0,0,0,0,0,0,0,0,0,0,0,0,0,0,0,0,0,0,0],"id":16,"left_children":[1,3,5,7,9,-1,-1,11,-1,13,15,17,19,21,23,25,27,-1,29,-1,31,33,35,-1,37,39,-1,41,43,-1,-1,-1,-1,-1,-1,-1,-1,-1,-1,-1,-1,-1,-1,-1,-1],"loss_changes":[1.4333338E0,3.14816E-1,3.241241E-2,6.889053E-2,1.2538993E-1,0E0,0E0,6.340274E-2,0E0,3.108449E-2,1.0425183E-1,1.0852233E-2,1.7152368E-1,2.6938364E-2,2.497498E-3,2.8767996E-4,2.5461733E-2,0E0,8.717246E-3,0E0,6.472684E-2,6.256141E-4,6.677226E-3,0E0,3.892223E-4,2.4327151E-3,0E0,9.739612E-2,2.2031158E-2,0E0,0E0,0E0,0E0,0E0,0E0,0E0,0E0,0E0,0E0,0E0,0E0,0E0,0E0,0E0,0E0],"parents":[2147483647,0,0,1,1,2,2,3,3,4,4,7,7,9,9,10,10,11,11,12,12,13,13,14,14,15,15,16,16,18,18,20,20,21,21,22,22,24,24,25,25,27,27,28,28],"right_children":[2,4,6,8,10,-1,-1,12,-1,14,16,18,20,22,24,26,28,-1,30,-1,32,34,36,-1,38,40,-1,42,44,-1,-1,-1,-1,-1,-1,-1,-1,-1,-1,-1,-1,-1,-1,-1,-1],"split_conditions":[3.3418536E0,8.5454446E-1,-1.020297E0,1.5651159E0,4.5708176E-1,2.5363255E-1,6.300831E-2,-1.7589865E0,5.4491475E-2,2.00001E0,-9.088865E-1,-3.2363653E0,2.00001E0,1.2977124E0,3.3105304E0,1.1957712E0,2.00001E0,4.925108E-3,1.0490739E0,8.72778E-2,2.00001E0,-1.3896418E0,1.4855702E0,3.2791443E-2,4.1268337E-1,8.264265E-1,1.6365433E-2,1.1957712E0,8.6614573E-1,-1.3388041E-2,-3.280039E-2,-3.8790036E-2,-2.7457578E-4,-6.6996575E-3,-2.820182E-2,1.6626079E-2,-2.7145387E-3,1.3564397E-2,2.541733E-3,1.2048197E-2,-3.5422326E-3,-2.5584126E-2,6.473256E-2,2.246046E-2,1.0607393E-1],"split_indices":[1,1,0,0,0,0,0,0,0,60,2,0,75,1,1,0,75,0,2,0,66,0,2,0,2,0,0,0,1,0,0,0,0,0,0,0,0,0,0,0,0,0,0,0,0],"split_type":[0,0,0,0,0,0,0,0,0,0,0,0,0,0,0,0,0,0,0,0,0,0,0,0,0,0,0,0,0,0,0,0,0,0,0,0,0,0,0,0,0,0,0,0,0],"sum_hessian":[2.61E2,2.59E2,2E0,2.34E2,2.5E1,1E0,1E0,2.33E2,1E0,1.4E1,1.1E1,1.3E1,2.2E2,8E0,6E0,4E0,7E0,1E0,1.2E1,1E0,2.19E2,2E0,6E0,4E0,2E0,2E0,2E0,3E0,4E0,7E0,5E0,3E0,2.16E2,1E0,1E0,4E0,2E0,1E0,1E0,1E0,1E0,1E0,2E0,1E0,3E0],"tree_param":{"num_deleted":"0","num_feature":"87","num_nodes":"45","size_leaf_vector":"1"}},{"base_weights":[1.3752888E-2,6.957526E-3,5.981E-1,-2.1776438E-3,8.587131E-2,2.1558781E-1,5.3557206E-2,-1.5982658E-2,1.5232304E-2,3.3946633E-2,1.4794827E-1,-4.4526655E-2,-8.490558E-3,4.7542923E-3,1.0338692E-1,3.6520003E-3,7.237516E-2,3.5824966E-2,1.995318E-1,3.24208E-3,-4.707052E-2,-3.2843947E-2,-5.4666903E-3,1.4202325E-1,-4.5532137E-3,-7.121388E-2,1.5009975E-1,-4.0610217E-2,3.9928515E-2,2.9028656E-2,2.9894352E-2,1.3478852E-2,1.4778773E-2,9.3220234E-2,2.4467468E-1,1.2739577E-3,-1.478792E-2,-4.7803405E-3,5.166165E-3,6.67733E-2,-3.911233E-2,-3.8092807E-2,3.2419655E-3,1.827829E-2,-5.0324537E-2,2.3757936E-3,7.867808E-2,-3.2430768E-3,-2.3971511E-2,8.191109E-4,1.73535E-2,9.3345647E-4,1.6536428E-2,-3.0109407E-3,9.661389E-3,-2.1746635E-2,5.1785853E-2,1.9091321E-2,8.220735E-2],"categories":[],"categories_nodes":[],"categories_segments":[],"categories_sizes":[],"default_left":[0,0,0,0,0,0,0,0,0,0,0,0,0,0,0,0,0,0,0,0,0,0,0,0,0,0,0,0,0,0,0,0,0,0,0,0,0,0,0,0,0,0,0,0,0,0,0,0,0,0,0,0,0,0,0,0,0,0,0],"id":17,"left_children":[1,3,5,7,9,-1,-1,11,13,15,17,19,21,23,25,27,29,31,33,-1,35,-1,37,39,41,43,45,47,49,-1,51,-1,53,55,57,-1,-1,-1,-1,-1,-1,-1,-1,-1,-1,-1,-1,-1,-1,-1,-1,-1,-1,-1,-1,-1,-1,-1,-1],"loss_changes":[1.0362016E0,1.876186E-1,2.3417473E-2,5.648409E-2,8.200747E-2,0E0,0E0,2.7636882E-2,9.557172E-2,1.8362535E-2,6.2256366E-2,4.3092407E-3,3.1466216E-2,1.20744035E-1,1.0040627E-1,1.7678296E-2,4.359219E-3,2.9407628E-4,1.5585065E-2,0E0,3.174737E-3,0E0,2.473535E-2,1.6067547E-1,1.6872647E-1,4.848919E-2,1.4144632E-1,4.9911262E-3,3.8408209E-3,0E0,2.531098E-3,0E0,1.620501E-3,6.514168E-2,9.12869E-3,0E0,0E0,0E0,0E0,0E0,0E0,0E0,0E0,0E0,0E0,0E0,0E0,0E0,0E0,0E0,0E0,0E0,0E0,0E0,0E0,0E0,0E0,0E0,0E0],"parents":[2147483647,0,0,1,1,2,2,3,3,4,4,7,7,8,8,9,9,10,10,11,11,12,12,13,13,14,14,15,15,16,16,17,17,18,18,20,20,22,22,23,23,24,24,25,25,26,26,27,27,28,28,30,30,32,32,33,33,34,34],"right_children":[2,4,6,8,10,-1,-1,12,14,16,18,20,22,24,26,28,30,32,34,-1,36,-1,38,40,42,44,46,48,50,-1,52,-1,54,56,58,-1,-1,-1,-1,-1,-1,-1,-1,-1,-1,-1,-1,-1,-1,-1,-1,-1,-1,-1,-1,-1,-1,-1,-1],"split_conditions":[3.3418536E0,8.417831E-1,-1.020297E0,-1.5360463E-1,4.5708176E-1,2.1558781E-1,5.3557206E-2,-7.765921E-1,1.1957712E0,2.00001E0,-9.088865E-1,2.00001E0,2.00001E0,2.00001E0,2.00001E0,-1.020297E0,1.2285235E0,1.432287E0,2.00001E0,3.24208E-3,2.00001E0,-3.2843947E-2,-1.8546616E-1,5.816317E-1,-6.099279E-1,2.2923681E-1,1.7355078E-1,-1.3896418E0,5.816317E-1,2.9028656E-2,2.343694E0,1.3478852E-2,1.1957712E0,1.1957712E0,8.6614573E-1,1.2739577E-3,-1.478792E-2,-4.7803405E-3,5.166165E-3,6.67733E-2,-3.911233E-2,-3.8092807E-2,3.2419655E-3,1.827829E-2,-5.0324537E-2,2.3757936E-3,7.867808E-2,-3.2430768E-3,-2.3971511E-2,8.191109E-4,1.73535E-2,9.3345647E-4,1.6536428E-2,-3.0109407E-3,9.661389E-3,-2.1746635E-2,5.1785853E-2,1.9091321E-2,8.220735E-2],"split_indices":[1,1,0,1,0,0,0,1,0,60,2,23,69,58,58,0,2,1,75,0,47,0,2,2,2,1,1,0,2,0,2,0,0,0,1,0,0,0,0,0,0,0,0,0,0,0,0,0,0,0,0,0,0,0,0,0,0,0,0],"split_type":[0,0,0,0,0,0,0,0,0,0,0,0,0,0,0,0,0,0,0,0,0,0,0,0,0,0,0,0,0,0,0,0,0,0,0,0,0,0,0,0,0,0,0,0,0,0,0,0,0,0,0,0,0,0,0,0,0,0,0],"sum_hessian":[2.61E2,2.59E2,2E0,2.33E2,2.6E1,1E0,1E0,1.3E2,1.03E2,1.5E1,1.1E1,2.6E1,1.04E2,9.3E1,1E1,9E0,6E0,4E0,7E0,1E0,2.5E1,2E0,1.02E2,5E0,8.8E1,2E0,8E0,4E0,5E0,3E0,3E0,2E0,2E0,3E0,4E0,1E0,2.4E1,7E1,3.2E1,4E0,1E0,9E0,7.9E1,1E0,1E0,4E0,4E0,3E0,1E0,2E0,3E0,2E0,1E0,1E0,1E0,1E0,2E0,1E0,3E0],"tree_param":{"num_deleted":"0","num_feature":"87","num_nodes":"59","size_leaf_vector":"1"}},{"base_weights":[1.1371891E-2,5.59339E-3,5.083847E-1,-1.4023411E-3,6.860891E-2,1.8324967E-1,4.5523454E-2,2.1785514E-3,-5.8084898E-2,2.5973257E-2,1.1618606E-1,-2.5296686E-3,7.7822685E-2,1.6394138E-2,-1.0128371E-1,-3.0644298E-2,4.2681336E-2,2.910328E-2,1.5608954E-1,-4.3504216E-2,-1.2108685E-3,-7.922516E-2,7.41736E-2,-1.6756637E-1,2.3461223E-2,-5.6853455E-2,7.1974755E-3,7.028564E-2,1.2923173E-2,1.1991183E-2,1.0954285E-2,6.2054947E-2,8.426342E-2,-3.0791689E-2,2.0453935E-4,6.1050416E-3,-4.5717623E-2,-6.784487E-2,-2.452122E-2,1.5844345E-3,8.328199E-3,-5.208278E-3,-2.0375777E-2,4.079175E-3,3.6732484E-2,-1.0028172E-3,1.0717584E-2,-2.5593282E-3,7.955361E-3,-1.5504837E-2,5.7636548E-2],"categories":[],"categories_nodes":[],"categories_segments":[],"categories_sizes":[],"default_left":[0,0,0,0,0,0,0,0,0,0,0,0,0,0,0,0,0,0,0,0,0,0,0,0,0,0,0,0,0,0,0,0,0,0,0,0,0,0,0,0,0,0,0,0,0,0,0,0,0,0,0],"id":18,"left_children":[1,3,5,7,9,-1,-1,11,13,15,17,19,-1,21,23,25,27,29,31,-1,33,35,-1,37,39,41,-1,43,45,47,-1,-1,49,-1,-1,-1,-1,-1,-1,-1,-1,-1,-1,-1,-1,-1,-1,-1,-1,-1,-1],"loss_changes":[7.496176E-1,1.1471452E-1,1.691991E-2,4.7825463E-2,4.9722835E-2,0E0,0E0,2.695198E-1,4.670414E-2,1.54975E-2,3.715615E-2,4.0976353E-2,0E0,1.5203102E-1,7.834715E-2,7.0918454E-3,8.949127E-3,1.9623945E-4,1.1737436E-2,0E0,4.1919332E-2,3.9529283E-2,0E0,1.1683941E-2,1.6603479E-4,1.3190787E-4,0E0,1.6074957E-2,2.7156963E-3,1.1205883E-3,0E0,0E0,8.324409E-2,0E0,0E0,0E0,0E0,0E0,0E0,0E0,0E0,0E0,0E0,0E0,0E0,0E0,0E0,0E0,0E0,0E0,0E0],"parents":[2147483647,0,0,1,1,2,2,3,3,4,4,7,7,8,8,9,9,10,10,11,11,13,13,14,14,15,15,16,16,17,17,18,18,20,20,21,21,23,23,24,24,25,25,27,27,28,28,29,29,32,32],"right_children":[2,4,6,8,10,-1,-1,12,14,16,18,20,-1,22,24,26,28,30,32,-1,34,36,-1,38,40,42,-1,44,46,48,-1,-1,50,-1,-1,-1,-1,-1,-1,-1,-1,-1,-1,-1,-1,-1,-1,-1,-1,-1,-1],"split_conditions":[3.3418536E0,8.5454446E-1,-1.020297E0,7.1648955E-1,4.5708176E-1,1.8324967E-1,4.5523454E-2,5.888757E-1,-7.2508685E-2,1.2977124E0,-9.088865E-1,2.00001E0,7.7822685E-2,-3.1087637E-1,7.327313E-1,-1.020297E0,1.1216995E0,2.00001E0,-4.2099944E-1,-4.3504216E-2,2.00001E0,-4.906976E-1,7.41736E-2,3.6073503E-1,1.0891737E0,-1.3896418E0,7.1974755E-3,5.816317E-1,1.8244095E0,1.1957712E0,1.0954285E-2,6.2054947E-2,3.457267E-1,-3.0791689E-2,2.0453935E-4,6.1050416E-3,-4.5717623E-2,-6.784487E-2,-2.452122E-2,1.5844345E-3,8.328199E-3,-5.208278E-3,-2.0375777E-2,4.079175E-3,3.6732484E-2,-1.0028172E-3,1.0717584E-2,-2.5593282E-3,7.955361E-3,-1.5504837E-2,5.7636548E-2],"split_indices":[1,1,0,1,0,0,0,1,2,1,2,68,0,2,1,0,2,60,2,0,66,2,0,2,2,0,0,2,1,0,0,0,2,0,0,0,0,0,0,0,0,0,0,0,0,0,0,0,0,0,0],"split_type":[0,0,0,0,0,0,0,0,0,0,0,0,0,0,0,0,0,0,0,0,0,0,0,0,0,0,0,0,0,0,0,0,0,0,0,0,0,0,0,0,0,0,0,0,0,0,0,0,0,0,0],"sum_hessian":[2.61E2,2.59E2,2E0,2.34E2,2.5E1,1E0,1E0,2.21E2,1.3E1,1.4E1,1.1E1,2.18E2,3E0,5E0,8E0,3E0,1.1E1,4E0,7E0,1E0,2.17E2,4E0,1E0,5E0,3E0,2E0,1E0,5E0,6E0,2E0,2E0,3E0,4E0,3E0,2.14E2,2E0,2E0,2E0,3E0,1E0,2E0,1E0,1E0,3E0,2E0,4E0,2E0,1E0,1E0,2E0,2E0],"tree_param":{"num_deleted":"0","num_feature":"87","num_nodes":"51","size_leaf_vector":"1"}},{"base_weights":[9.247659E-3,4.3327212E-3,4.3212637E-1,-3.8017372E-3,3.943828E-2,1.557621E-1,3.8694765E-2,-1.0820626E-3,-8.3294764E-2,1.0438592E-1,2.010848E-2,-6.202785E-3,3.800853E-2,-7.340377E-2,-1.561749E-2,1.8795863E-1,2.9778855E-2,-6.29756E-2,5.0929736E-2,-3.3354105E-3,-1.07614234E-1,-6.1100222E-2,5.7371285E-2,9.340185E-2,-4.6731234E-2,2.2461366E-2,7.1517944E-2,-1.5577913E-2,5.2050788E-2,1.7235756E-2,-1.3269103E-1,2.1136774E-2,9.137503E-2,2.2996642E-2,-1.8223644E-3,-5.4606916E-3,-3.7624992E-2,-1.2481342E-2,3.7191093E-2,1.7582657E-3,5.3403713E-2,3.2701112E-2,-1.102978E-3,-1.9014131E-2,6.3047506E-2,-5.4275945E-2,-1.9004006E-2,1.1941493E-3,1.4258399E-2,1.8707866E-2,6.1581805E-2],"categories":[],"categories_nodes":[],"categories_segments":[],"categories_sizes":[],"default_left":[0,0,0,0,0,0,0,0,0,0,0,0,0,0,0,0,0,0,0,0,0,0,0,0,0,0,0,0,0,0,0,0,0,0,0,0,0,0,0,0,0,0,0,0,0,0,0,0,0,0,0],"id":19,"left_children":[1,3,5,7,9,-1,-1,11,13,15,17,19,21,-1,23,25,27,29,31,33,35,-1,37,39,-1,-1,-1,-1,41,43,45,47,49,-1,-1,-1,-1,-1,-1,-1,-1,-1,-1,-1,-1,-1,-1,-1,-1,-1,-1],"loss_changes":[5.4267436E-1,7.439676E-2,1.222527E-2,4.5743246E-2,5.9416786E-2,0E0,0E0,4.1471206E-2,7.263315E-2,6.2989056E-2,1.030768E-1,5.2854642E-2,1.23992935E-1,0E0,1.06225796E-1,1.0668784E-2,1.5440944E-2,6.379869E-2,3.3013195E-2,3.9685618E-2,5.6758635E-3,0E0,1.5676656E-1,2.8584234E-2,0E0,0E0,0E0,0E0,1.9443782E-2,1.0663603E-1,8.605689E-3,7.960767E-3,2.685684E-2,0E0,0E0,0E0,0E0,0E0,0E0,0E0,0E0,0E0,0E0,0E0,0E0,0E0,0E0,0E0,0E0,0E0,0E0],"parents":[2147483647,0,0,1,1,2,2,3,3,4,4,7,7,8,8,9,9,10,10,11,11,12,12,14,14,15,15,16,16,17,17,18,18,19,19,20,20,22,22,23,23,28,28,29,29,30,30,31,31,32,32],"right_children":[2,4,6,8,10,-1,-1,12,14,16,18,20,22,-1,24,26,28,30,32,34,36,-1,38,40,-1,-1,-1,-1,42,44,46,48,50,-1,-1,-1,-1,-1,-1,-1,-1,-1,-1,-1,-1,-1,-1,-1,-1,-1,-1],"split_conditions":[3.3418536E0,3.4292912E-1,-1.020297E0,2.930437E-1,7.1648955E-1,1.557621E-1,3.8694765E-2,1.7355078E-1,-6.300939E-1,2.7542448E-1,7.327313E-1,1.1322425E-1,2.00001E0,-7.340377E-2,2.00001E0,5.865555E-1,2.00001E0,-7.2508685E-2,4.5708176E-1,2.00001E0,8.264265E-1,-6.1100222E-2,2.0628391E-1,-6.509524E-1,-4.6731234E-2,2.2461366E-2,7.1517944E-2,-1.5577913E-2,5.816317E-1,-3.1087637E-1,3.6073503E-1,2.00001E0,3.3105304E0,2.2996642E-2,-1.8223644E-3,-5.4606916E-3,-3.7624992E-2,-1.2481342E-2,3.7191093E-2,1.7582657E-3,5.3403713E-2,3.2701112E-2,-1.102978E-3,-1.9014131E-2,6.3047506E-2,-5.4275945E-2,-1.9004006E-2,1.1941493E-3,1.4258399E-2,1.8707866E-2,6.1581805E-2],"split_indices":[1,1,0,1,1,0,0,1,2,2,1,1,82,0,59,1,60,2,0,81,0,0,2,0,0,0,0,0,2,2,2,60,1,0,0,0,0,0,0,0,0,0,0,0,0,0,0,0,0,0,0],"split_type":[0,0,0,0,0,0,0,0,0,0,0,0,0,0,0,0,0,0,0,0,0,0,0,0,0,0,0,0,0,0,0,0,0,0,0,0,0,0,0,0,0,0,0,0,0,0,0,0,0,0,0],"sum_hessian":[2.61E2,2.59E2,2E0,2.11E2,4.8E1,1E0,1E0,2.05E2,6E0,1E1,3.8E1,1.82E2,2.3E1,1E0,5E0,4E0,6E0,1E1,2.8E1,1.78E2,4E0,1E0,2.2E1,3E0,2E0,2E0,2E0,1E0,5E0,5E0,5E0,1.7E1,1.1E1,5E0,1.73E2,1E0,3E0,9E0,1.3E1,2E0,1E0,2E0,3E0,4E0,1E0,2E0,3E0,1.1E1,6E0,1E1,1E0],"tree_param":{"num_deleted":"0","num_feature":"87","num_nodes":"51","size_leaf_vector":"1"}},{"base_weights":[7.4187387E-3,3.237648E-3,3.6730704E-1,-1.0349026E-2,1.7329756E-2,1.3239785E-1,3.289032E-2,-1.146363E-1,-7.060579E-3,1.3317747E-2,7.902825E-2,-5.9642317E-3,-4.187837E-2,-4.7021914E-2,-4.685239E-3,-9.819963E-3,3.4851387E-2,4.8673246E-3,-3.262201E-2,-4.5579188E-3,-8.498013E-2,-8.800602E-2,4.2098664E-2,2.8748091E-2,-6.549174E-4,4.599822E-2,-1.4869438E-2,8.8479705E-3,-5.3742016E-3,-3.814173E-3,-3.144927E-2,-1.1453534E-1,4.115448E-2,1.5690118E-2,-1.9060351E-2],"categories":[],"categories_nodes":[],"categories_segments":[],"categories_sizes":[],"default_left":[0,0,0,0,0,0,0,0,0,0,0,0,0,0,0,0,0,0,0,0,0,0,0,0,0,0,0,0,0,0,0,0,0,0,0],"id":20,"left_children":[1,3,5,7,9,-1,-1,11,13,15,-1,-1,-1,-1,17,19,21,23,25,27,29,31,33,-1,-1,-1,-1,-1,-1,-1,-1,-1,-1,-1,-1],"loss_changes":[3.9304888E-1,4.996022E-2,8.833557E-3,4.4802047E-2,1.228721E-1,0E0,0E0,6.684482E-3,4.5485683E-2,6.3618615E-2,0E0,0E0,0E0,0E0,3.4584727E-2,2.4133429E-2,6.24701E-2,6.2415324E-2,1.1156612E-1,2.7360957E-2,4.405353E-3,3.1699485E-1,7.121425E-2,0E0,0E0,0E0,0E0,0E0,0E0,0E0,0E0,0E0,0E0,0E0,0E0],"parents":[2147483647,0,0,1,1,2,2,3,3,4,4,7,7,8,8,9,9,14,14,15,15,16,16,17,17,18,18,19,19,20,20,21,21,22,22],"right_children":[2,4,6,8,10,-1,-1,12,14,16,-1,-1,-1,-1,18,20,22,24,26,28,30,32,34,-1,-1,-1,-1,-1,-1,-1,-1,-1,-1,-1,-1],"split_conditions":[3.3418536E0,4.5708176E-1,-1.020297E0,2.00001E0,1.286187E0,1.3239785E-1,3.289032E-2,-1.08359724E-1,2.00001E0,-1.8028751E-1,7.902825E-2,-5.9642317E-3,-4.187837E-2,-4.7021914E-2,1.1216995E0,-1.9884953E-1,2.00001E0,2.00001E0,2.00001E0,-1.2713169E0,8.264265E-1,8.264265E-1,7.174037E-1,2.8748091E-2,-6.549174E-4,4.599822E-2,-1.4869438E-2,8.8479705E-3,-5.3742016E-3,-3.814173E-3,-3.144927E-2,-1.1453534E-1,4.115448E-2,1.5690118E-2,-1.9060351E-2],"split_indices":[1,0,0,55,2,0,0,1,65,1,0,0,0,0,2,1,83,83,73,2,0,0,2,0,0,0,0,0,0,0,0,0,0,0,0],"split_type":[0,0,0,0,0,0,0,0,0,0,0,0,0,0,0,0,0,0,0,0,0,0,0,0,0,0,0,0,0,0,0,0,0,0,0],"sum_hessian":[2.61E2,2.59E2,2E0,1.32E2,1.27E2,1E0,1E0,3E0,1.29E2,1.26E2,1E0,1E0,2E0,1E0,1.28E2,6.1E1,6.5E1,9.6E1,3.2E1,5.8E1,3E0,3E0,6.2E1,6E0,9E1,2E0,3E1,1.6E1,4.2E1,1E0,2E0,1E0,2E0,5.7E1,5E0],"tree_param":{"num_deleted":"0","num_feature":"87","num_nodes":"35","size_leaf_vector":"1"}},{"base_weights":[5.5752792E-3,2.015727E-3,3.1221136E-1,-3.990157E-3,3.0042887E-2,1.12538345E-1,2.7956773E-2,1.4632569E-3,-3.207809E-2,1.0763377E-1,1.3356478E-2,-3.7364752E-3,9.0752326E-2,-6.7924015E-2,2.6542503E-2,-1.3143039E-2,1.3552721E-1,-5.3582083E-2,3.82864E-2,-3.3084804E-4,-6.537941E-2,-4.0773535E-3,7.0204854E-2,1.6338704E-2,-1.5367207E-1,5.775881E-2,-1.7166086E-2,1.7948199E-2,4.615251E-2,6.3292184E-3,-1.04563035E-1,2.8596869E-2,9.169674E-2,3.1150961E-2,-8.7504083E-4,-6.120377E-2,1.0124139E-3,1.6296566E-2,-6.8592625E-3,-1.895292E-2,8.793198E-3,-1.9274026E-2,-5.8678247E-2,4.3419957E-2,-1.351253E-2,-1.8216249E-2,5.1236916E-2,-4.4924308E-2,-1.3360137E-2,1.9449878E-2,3.5503453E-3,3.3514025E-3,4.999094E-2],"categories":[],"categories_nodes":[],"categories_segments":[],"categories_sizes":[],"default_left":[0,0,0,0,0,0,0,0,0,0,0,0,0,0,0,0,0,0,0,0,0,0,0,0,0,0,0,0,0,0,0,0,0,0,0,0,0,0,0,0,0,0,0,0,0,0,0,0,0,0,0,0,0],"id":21,"left_children":[1,3,5,7,9,-1,-1,11,13,15,17,19,21,23,25,-1,27,29,31,33,35,37,-1,39,41,-1,43,-1,-1,45,47,49,51,-1,-1,-1,-1,-1,-1,-1,-1,-1,-1,-1,-1,-1,-1,-1,-1,-1,-1,-1,-1],"loss_changes":[2.853403E-1,4.3885123E-2,6.382376E-3,3.297959E-2,5.8119196E-2,0E0,0E0,8.437364E-2,7.53487E-2,3.9731793E-2,6.7133605E-2,3.608682E-2,1.3681084E-1,1.614688E-1,1.048757E-1,0E0,5.0088763E-4,3.4259494E-2,1.2385875E-2,4.44799E-2,8.6472884E-2,8.921993E-3,0E0,1.4229337E-2,2.8671563E-2,0E0,6.0675662E-2,0E0,0E0,7.653299E-2,9.605572E-3,1.5025208E-2,2.2276651E-2,0E0,0E0,0E0,0E0,0E0,0E0,0E0,0E0,0E0,0E0,0E0,0E0,0E0,0E0,0E0,0E0,0E0,0E0,0E0,0E0],"parents":[2147483647,0,0,1,1,2,2,3,3,4,4,7,7,8,8,9,9,10,10,11,11,12,12,13,13,14,14,16,16,17,17,18,18,19,19,20,20,21,21,23,23,24,24,26,26,29,29,30,30,31,31,32,32],"right_children":[2,4,6,8,10,-1,-1,12,14,16,18,20,22,24,26,-1,28,30,32,34,36,38,-1,40,42,-1,44,-1,-1,46,48,50,52,-1,-1,-1,-1,-1,-1,-1,-1,-1,-1,-1,-1,-1,-1,-1,-1,-1,-1,-1,-1],"split_conditions":[3.3418536E0,4.148569E-1,-1.020297E0,8.114497E-1,7.1648955E-1,1.12538345E-1,2.7956773E-2,7.174037E-1,1.3391577E0,2.00001E0,7.327313E-1,2.4547857E-1,4.9417347E-2,-1.5940525E-1,2.00001E0,-1.3143039E-2,5.3550994E-1,-7.2508685E-2,3.3105304E0,2.00001E0,4.5708176E-1,2.00001E0,7.0204854E-2,2.00001E0,-1.020297E0,5.775881E-2,2.00001E0,1.7948199E-2,4.615251E-2,-3.1087637E-1,3.6073503E-1,-4.2099944E-1,4.5708176E-1,3.1150961E-2,-8.7504083E-4,-6.120377E-2,1.0124139E-3,1.6296566E-2,-6.8592625E-3,-1.895292E-2,8.793198E-3,-1.9274026E-2,-5.8678247E-2,4.3419957E-2,-1.351253E-2,-1.8216249E-2,5.1236916E-2,-4.4924308E-2,-1.3360137E-2,1.9449878E-2,3.5503453E-3,3.3514025E-3,4.999094E-2],"split_indices":[1,1,0,2,1,0,0,2,2,60,1,1,1,1,83,0,1,2,1,58,0,78,0,57,0,0,73,0,0,2,2,2,0,0,0,0,0,0,0,0,0,0,0,0,0,0,0,0,0,0,0,0,0],"split_type":[0,0,0,0,0,0,0,0,0,0,0,0,0,0,0,0,0,0,0,0,0,0,0,0,0,0,0,0,0,0,0,0,0,0,0,0,0,0,0,0,0,0,0,0,0,0,0,0,0,0,0,0,0],"sum_hessian":[2.61E2,2.59E2,2E0,2.14E2,4.5E1,1E0,1E0,1.8E2,3.4E1,7E0,3.8E1,1.71E2,9E0,2.1E1,1.3E1,1E0,6E0,1E1,2.8E1,1.63E2,8E0,6E0,3E0,1.1E1,1E1,2E0,1.1E1,2E0,4E0,5E0,5E0,2.5E1,3E0,3E0,1.6E2,2E0,6E0,1E0,5E0,1E0,1E1,4E0,6E0,1E0,1E1,4E0,1E0,2E0,3E0,7E0,1.8E1,2E0,1E0],"tree_param":{"num_deleted":"0","num_feature":"87","num_nodes":"53","size_leaf_vector":"1"}},{"base_weights":[5.0164815E-3,1.9929975E-3,2.6537958E-1,-3.892751E-2,3.0026876E-3,9.5657736E-2,2.3763085E-2,-8.824384E-2,4.4166856E-3,2.707279E-2,-5.3346064E-2,-7.918493E-3,1.7206302E-2,-2.5645567E-2,-6.053232E-3,1.0021738E-1,1.2947849E-2,-8.706595E-3,7.941357E-6,4.9192403E-2,-3.2785356E-2,5.0472666E-2,3.0755135E-3],"categories":[],"categories_nodes":[],"categories_segments":[],"categories_sizes":[],"default_left":[0,0,0,0,0,0,0,0,0,0,0,0,0,0,0,0,0,0,0,0,0,0,0],"id":22,"left_children":[1,3,5,-1,7,-1,-1,9,11,-1,-1,13,15,-1,17,19,21,-1,-1,-1,-1,-1,-1],"loss_changes":[2.0571844E-1,3.4976915E-2,4.61182E-3,0E0,3.3806544E-2,0E0,0E0,7.999963E-2,4.0523373E-2,0E0,0E0,1.8435907E-2,4.324324E-2,0E0,1.8014736E-2,9.806353E-2,4.893733E-2,0E0,0E0,0E0,0E0,0E0,0E0],"parents":[2147483647,0,0,1,1,2,2,4,4,7,7,8,8,11,11,12,12,14,14,15,15,16,16],"right_children":[2,4,6,-1,8,-1,-1,10,12,-1,-1,14,16,-1,18,20,22,-1,-1,-1,-1,-1,-1],"split_conditions":[3.3418536E0,2.00001E0,-1.020297E0,-3.892751E-2,2.00001E0,9.5657736E-2,2.3763085E-2,7.6528285E-3,-1.5360463E-1,2.707279E-2,-5.3346064E-2,2.00001E0,-7.355596E-2,-2.5645567E-2,-7.765921E-1,3.457267E-1,2.00001E0,-8.706595E-3,7.941357E-6,4.9192403E-2,-3.2785356E-2,5.0472666E-2,3.0755135E-3],"split_indices":[1,68,0,0,66,0,0,1,1,0,0,69,1,0,1,2,69,0,0,0,0,0,0],"split_type":[0,0,0,0,0,0,0,0,0,0,0,0,0,0,0,0,0,0,0,0,0,0,0],"sum_hessian":[2.61E2,2.59E2,2E0,1E0,2.58E2,1E0,1E0,3E0,2.55E2,1E0,2E0,1.3E2,1.25E2,2E0,1.28E2,5E0,1.2E2,2.6E1,1.02E2,4E0,1E0,1E0,1.19E2],"tree_param":{"num_deleted":"0","num_feature":"87","num_nodes":"23","size_leaf_vector":"1"}},{"base_weights":[3.8543986E-3,1.2554009E-4,1.6293144E-1,-7.435268E-4,3.3391E-2,8.130913E-2,8.710556E-2,-3.3088375E-2,1.1861295E-4,6.887436E-3,4.148655E-2,-5.4207154E-2,1.645367E-3,3.5588266E-3,-4.594803E-4,9.191648E-2,-3.931197E-2,-6.833899E-2,2.7766356E-3,-2.3268808E-2,6.463122E-2,2.3011852E-2,-4.267683E-2,-9.23383E-5,1.0258719E-2],"categories":[],"categories_nodes":[],"categories_segments":[],"categories_sizes":[],"default_left":[0,0,0,0,0,0,0,0,0,0,0,0,0,0,0,0,0,0,0,0,0,0,0,0,0],"id":23,"left_children":[1,3,5,7,-1,-1,9,-1,11,13,-1,15,17,-1,-1,19,-1,21,23,-1,-1,-1,-1,-1,-1],"loss_changes":[1.553916E-1,2.4914337E-2,2.5571957E-2,2.419185E-2,0E0,0E0,1.9576542E-2,0E0,2.1239422E-2,1.4383117E-4,0E0,9.06343E-2,1.9903358E-2,0E0,0E0,7.951258E-2,0E0,5.37972E-2,2.3850383E-2,0E0,0E0,0E0,0E0,0E0,0E0],"parents":[2147483647,0,0,1,1,2,2,3,3,6,6,8,8,9,9,11,11,12,12,15,15,17,17,18,18],"right_children":[2,4,6,8,-1,-1,10,-1,12,14,-1,16,18,-1,-1,20,-1,22,24,-1,-1,-1,-1,-1,-1],"split_conditions":[3.3105304E0,1.5651159E0,-1.020297E0,2.00001E0,3.3391E-2,8.130913E-2,4.5708176E-1,-3.3088375E-2,2.00001E0,4.1268337E-1,4.148655E-2,3.317559E-2,2.00001E0,3.5588266E-3,-4.594803E-4,-1.020297E0,-3.931197E-2,7.6528285E-3,1.3308868E0,-2.3268808E-2,6.463122E-2,2.3011852E-2,-4.267683E-2,-9.23383E-5,1.0258719E-2],"split_indices":[1,0,0,68,0,0,0,0,76,2,0,1,66,0,0,0,0,1,2,0,0,0,0,0,0],"split_type":[0,0,0,0,0,0,0,0,0,0,0,0,0,0,0,0,0,0,0,0,0,0,0,0,0],"sum_hessian":[2.61E2,2.56E2,5E0,2.55E2,1E0,1E0,4E0,1E0,2.54E2,2E0,2E0,6E0,2.48E2,1E0,1E0,2E0,4E0,3E0,2.45E2,1E0,1E0,1E0,2E0,2.24E2,2.1E1],"tree_param":{"num_deleted":"0","num_feature":"87","num_nodes":"25","size_leaf_vector":"1"}},{"base_weights":[3.151363E-3,6.0115748E-5,1.3503456E-1,-6.787731E-4,2.838235E-2,6.911259E-2,6.9891356E-2,-2.8125145E-2,5.3862906E-5,5.8542886E-3,3.3189394E-2,-3.2503635E-2,2.0800398E-3,3.0249597E-3,-3.9052966E-4,6.1999084E-3,-3.7777662E-2,2.1019897E-4,5.6512877E-2,-1.0495719E-3,-1.4042536E-2,-2.202673E-2,4.452939E-4,-1.3823891E-2,2.3325527E-2],"categories":[],"categories_nodes":[],"categories_segments":[],"categories_sizes":[],"default_left":[0,0,0,0,0,0,0,0,0,0,0,0,0,0,0,0,0,0,0,0,0,0,0,0,0],"id":24,"left_children":[1,3,5,7,-1,-1,9,-1,11,13,-1,15,17,-1,-1,-1,19,21,23,-1,-1,-1,-1,-1,-1],"loss_changes":[1.0680498E-1,1.8018302E-2,2.1163553E-2,1.7461095E-2,0E0,0E0,1.2396667E-2,0E0,1.6889257E-2,1.0391288E-4,0E0,4.9870256E-3,2.451728E-2,0E0,0E0,0E0,4.1701775E-3,2.2062011E-2,2.1014374E-2,0E0,0E0,0E0,0E0,0E0,0E0],"parents":[2147483647,0,0,1,1,2,2,3,3,6,6,8,8,9,9,11,11,12,12,16,16,17,17,18,18],"right_children":[2,4,6,8,-1,-1,10,-1,12,14,-1,16,18,-1,-1,-1,20,22,24,-1,-1,-1,-1,-1,-1],"split_conditions":[3.3105304E0,1.5651159E0,-1.020297E0,2.00001E0,2.838235E-2,6.911259E-2,4.5708176E-1,-2.8125145E-2,-1.7589865E0,4.1268337E-1,3.3189394E-2,-3.2363653E0,1.9719704E0,3.0249597E-3,-3.9052966E-4,6.1999084E-3,7.899827E-1,2.00001E0,2.00001E0,-1.0495719E-3,-1.4042536E-2,-2.202673E-2,4.452939E-4,-1.3823891E-2,2.3325527E-2],"split_indices":[1,0,0,68,0,0,0,0,0,2,0,0,2,0,0,0,2,62,66,0,0,0,0,0,0],"split_type":[0,0,0,0,0,0,0,0,0,0,0,0,0,0,0,0,0,0,0,0,0,0,0,0,0],"sum_hessian":[2.61E2,2.56E2,5E0,2.55E2,1E0,1E0,4E0,1E0,2.54E2,2E0,2E0,1.4E1,2.4E2,1E0,1E0,1E0,1.3E1,2.33E2,7E0,3E0,1E1,3E0,2.3E2,1E0,6E0],"tree_param":{"num_deleted":"0","num_feature":"87","num_nodes":"25","size_leaf_vector":"1"}},{"base_weights":[2.527405E-3,1.0365534E-3,5.8745958E-2,-7.189721E-3,9.509871E-3,-1.05650425E-1,-4.1048555E-3,5.532629E-4,8.304249E-2,-3.6658335E-2,-8.402754E-3,-4.0345967E-2,-2.051613E-3,9.545627E-3,-6.564437E-2,1.7026894E-1,1.5664581E-2,-4.914436E-2,1.8898793E-3,1.0385244E-3,6.836107E-2,-9.773806E-2,-2.0571856E-2,1.3755799E-3,6.0746588E-2,-2.9413398E-2,5.6443263E-2,6.763312E-3,-3.0208275E-2,7.6600723E-3,-2.8135022E-3,2.55754E-3,-3.883085E-2,-8.0718845E-3,3.4107514E-2,4.1508295E-2,-1.3603902E-2,-1.2637649E-2,8.93569E-3],"categories":[],"categories_nodes":[],"categories_segments":[],"categories_sizes":[],"default_left":[0,0,0,0,0,0,0,0,0,0,0,0,0,0,0,0,0,0,0,0,0,0,0,0,0,0,0,0,0,0,0,0,0,0,0,0,0,0,0],"id":25,"left_children":[1,3,-1,5,7,9,11,13,15,-1,-1,-1,17,19,21,23,25,27,29,31,33,-1,35,-1,-1,37,-1,-1,-1,-1,-1,-1,-1,-1,-1,-1,-1,-1,-1],"loss_changes":[7.529767E-2,1.8261075E-2,0E0,3.9963476E-2,8.491382E-2,1.7154329E-3,3.4525767E-2,6.967831E-2,7.961271E-2,0E0,0E0,0E0,2.4037302E-2,5.1464956E-2,1.5745588E-1,3.1101182E-2,7.550926E-2,3.922554E-2,3.221014E-2,8.999345E-2,5.9199896E-2,0E0,5.7461392E-2,0E0,0E0,7.275084E-3,0E0,0E0,0E0,0E0,0E0,0E0,0E0,0E0,0E0,0E0,0E0,0E0,0E0],"parents":[2147483647,0,0,1,1,3,3,4,4,5,5,6,6,7,7,8,8,12,12,13,13,14,14,15,15,16,16,17,17,18,18,19,19,20,20,22,22,25,25],"right_children":[2,4,-1,6,8,10,12,14,16,-1,-1,-1,18,20,22,24,26,28,30,32,34,-1,36,-1,-1,38,-1,-1,-1,-1,-1,-1,-1,-1,-1,-1,-1,-1,-1],"split_conditions":[9.881481E0,4.5708176E-1,5.8745958E-2,2.00001E0,4.386111E-1,-7.007559E-2,2.00001E0,1.5981849E-1,7.174037E-1,-3.6658335E-2,-8.402754E-3,-4.0345967E-2,-1.044612E0,-1.1897412E-1,2.00001E0,2.00001E0,1.286187E0,-6.509524E-1,1.5359211E-1,-2.0261191E-1,-2.1277103E-1,-9.773806E-2,2.00001E0,1.3755799E-3,6.0746588E-2,1.2785202E0,5.6443263E-2,6.763312E-3,-3.0208275E-2,7.6600723E-3,-2.8135022E-3,2.55754E-3,-3.883085E-2,-8.0718845E-3,3.4107514E-2,4.1508295E-2,-1.3603902E-2,-1.2637649E-2,8.93569E-3],"split_indices":[1,0,0,55,2,1,64,2,2,0,0,0,2,2,83,63,2,0,2,2,1,0,75,0,0,2,0,0,0,0,0,0,0,0,0,0,0,0,0],"split_type":[0,0,0,0,0,0,0,0,0,0,0,0,0,0,0,0,0,0,0,0,0,0,0,0,0,0,0,0,0,0,0,0,0,0,0,0,0,0,0],"sum_hessian":[2.61E2,2.6E2,1E0,1.32E2,1.28E2,3E0,1.29E2,1.15E2,1.3E1,2E0,1E0,1E0,1.28E2,1.02E2,1.3E1,5E0,8E0,9E0,1.19E2,9E1,1.2E1,1E0,1.2E1,1E0,4E0,7E0,1E0,4E0,5E0,3.8E1,8.1E1,8.6E1,4E0,4E0,8E0,1E0,1.1E1,6E0,1E0],"tree_param":{"num_deleted":"0","num_feature":"87","num_nodes":"39","size_leaf_vector":"1"}},{"base_weights":[1.7291798E-3,4.6035144E-4,4.9934007E-2,-2.2798596E-2,3.1306972E-3,-3.2432668E-2,-3.1774044E-3,-4.49575E-2,4.586971E-3,-2.183017E-2,-1.9225163E-2,-8.274537E-3,1.1221873E-2,-4.9518743E-3,-4.274869E-2,-1.0104288E-2,9.178013E-3,3.400621E-3,-2.500881E-2,1.6614487E-2,-3.1700716E-3,-1.9388033E-2,1.2312681E-2,-3.4294084E-2,-6.057568E-3,8.907146E-4,3.6241602E-2,-1.9057818E-3,-1.0400258E-2,1.6367198E-3,6.2489794E-3,-3.185842E-2,-6.49354E-4,-2.3743225E-2,1.3733329E-3,2.4304606E-2,-3.0773804E-3],"categories":[],"categories_nodes":[],"categories_segments":[],"categories_sizes":[],"default_left":[0,0,0,0,0,0,0,0,0,0,0,0,0,0,0,0,0,0,0,0,0,0,0,0,0,0,0,0,0,0,0,0,0,0,0,0,0],"id":26,"left_children":[1,3,-1,5,7,9,11,13,15,17,-1,-1,19,21,-1,23,25,-1,27,29,-1,-1,-1,-1,31,33,35,-1,-1,-1,-1,-1,-1,-1,-1,-1,-1],"loss_changes":[5.4680917E-2,1.6281936E-2,0E0,5.000813E-3,1.666317E-2,4.6415124E-3,3.8235742E-3,2.66089E-2,1.5538372E-2,1.8648067E-3,0E0,0E0,9.980528E-4,1.9120604E-2,0E0,2.2501366E-2,3.9217424E-2,0E0,2.3024995E-3,1.685922E-4,0E0,0E0,0E0,0E0,2.082147E-2,4.0199894E-2,8.619134E-2,0E0,0E0,0E0,0E0,0E0,0E0,0E0,0E0,0E0,0E0],"parents":[2147483647,0,0,1,1,3,3,4,4,5,5,6,6,7,7,8,8,9,9,12,12,13,13,15,15,16,16,18,18,19,19,24,24,25,25,26,26],"right_children":[2,4,-1,6,8,10,12,14,16,18,-1,-1,20,22,-1,24,26,-1,28,30,-1,-1,-1,-1,32,34,36,-1,-1,-1,-1,-1,-1,-1,-1,-1,-1],"split_conditions":[9.881481E0,-7.765921E-1,4.9934007E-2,8.264265E-1,2.00001E0,4.5708176E-1,-1.3224288E0,-6.509524E-1,-2.8160766E-1,-2.8670206E0,-1.9225163E-2,-8.274537E-3,-7.9515404E-1,4.9417347E-2,-4.274869E-2,2.00001E0,4.556639E-1,3.400621E-3,-7.986344E-1,-1.1086879E0,-3.1700716E-3,-1.9388033E-2,1.2312681E-2,-3.4294084E-2,2.00001E0,2.00001E0,7.899827E-1,-1.9057818E-3,-1.0400258E-2,1.6367198E-3,6.2489794E-3,-3.185842E-2,-6.49354E-4,-2.3743225E-2,1.3733329E-3,2.4304606E-2,-3.0773804E-3],"split_indices":[1,1,0,0,82,0,2,0,0,0,0,0,1,1,0,64,2,0,1,2,0,0,0,0,54,55,2,0,0,0,0,0,0,0,0,0,0],"split_type":[0,0,0,0,0,0,0,0,0,0,0,0,0,0,0,0,0,0,0,0,0,0,0,0,0,0,0,0,0,0,0,0,0,0,0,0,0],"sum_hessian":[2.61E2,2.6E2,1E0,2.6E1,2.34E2,1.7E1,9E0,6E0,2.28E2,1.4E1,3E0,3E0,6E0,5E0,1E0,5.4E1,1.74E2,1E0,1.3E1,5E0,1E0,2E0,3E0,1E0,5.3E1,1.34E2,4E1,5E0,8E0,2E0,3E0,1E0,5.2E1,5E0,1.29E2,2E1,2E1],"tree_param":{"num_deleted":"0","num_feature":"87","num_nodes":"37","size_leaf_vector":"1"}},{"base_weights":[8.3059823E-4,-2.5035345E-4,4.244385E-2,-5.570054E-2,8.2941813E-4,7.656018E-3,-3.0147076E-2,-1.0598861E-2,5.5086063E-3,5.634427E-4,2.8817654E-3,-1.8800493E-2,-9.04835E-3,-1.5583003E-2,1.0426041E-2,1.0681022E-2,-1.0147736E-2,3.1535618E-2,-4.849711E-2,1.3031216E-1,1.7882752E-3,1.0533277E-2,-3.3791943E-3,-3.842576E-2,1.5625844E-2,2.4014892E-2,-1.767808E-2,4.605765E-2,1.7133236E-2,-2.667928E-2,2.6099263E-3],"categories":[],"categories_nodes":[],"categories_segments":[],"categories_sizes":[],"default_left":[0,0,0,0,0,0,0,0,0,0,0,0,0,0,0,0,0,0,0,0,0,0,0,0,0,0,0,0,0,0,0],"id":27,"left_children":[1,3,-1,5,7,9,-1,11,13,-1,-1,-1,15,17,19,-1,21,23,25,27,29,-1,-1,-1,-1,-1,-1,-1,-1,-1,-1],"loss_changes":[3.98685E-2,1.5673192E-2,0E0,1.4957964E-2,1.3801477E-2,1.5757047E-5,0E0,5.4880213E-3,1.9142605E-2,0E0,0E0,0E0,3.9939173E-3,5.5809744E-2,1.5406364E-1,0E0,4.083427E-3,5.587607E-2,3.2872185E-2,8.224502E-3,8.855422E-2,0E0,0E0,0E0,0E0,0E0,0E0,0E0,0E0,0E0,0E0],"parents":[2147483647,0,0,1,1,3,3,4,4,5,5,7,7,8,8,12,12,13,13,14,14,16,16,17,17,18,18,19,19,20,20],"right_children":[2,4,-1,6,8,10,-1,12,14,-1,-1,-1,16,18,20,-1,22,24,26,28,30,-1,-1,-1,-1,-1,-1,-1,-1,-1,-1],"split_conditions":[9.881481E0,2.00001E0,4.244385E-2,-1.7869934E-2,-6.8726236E-1,-1.3896418E0,-3.0147076E-2,-8.067553E-1,-8.4081465E-1,5.634427E-4,2.8817654E-3,-1.8800493E-2,2.00001E0,-1.2480842E0,-7.601971E-1,1.0681022E-2,2.00001E0,2.00001E0,2.00001E0,2.4547857E-1,-6.099279E-1,1.0533277E-2,-3.3791943E-3,-3.842576E-2,1.5625844E-2,2.4014892E-2,-1.767808E-2,4.605765E-2,1.7133236E-2,-2.667928E-2,2.6099263E-3],"split_indices":[1,62,0,1,1,0,0,1,2,0,0,0,40,2,2,0,50,76,54,1,2,0,0,0,0,0,0,0,0,0,0],"split_type":[0,0,0,0,0,0,0,0,0,0,0,0,0,0,0,0,0,0,0,0,0,0,0,0,0,0,0,0,0,0,0],"sum_hessian":[2.61E2,2.6E2,1E0,4E0,2.56E2,2E0,2E0,7.4E1,1.82E2,1E0,1E0,1E0,7.3E1,3.4E1,1.48E2,1E0,7.2E1,1.4E1,2E1,9E0,1.39E2,1E0,7.1E1,1E0,1.3E1,1E0,1.9E1,6E0,3E0,9E0,1.3E2],"tree_param":{"num_deleted":"0","num_feature":"87","num_nodes":"31","size_leaf_vector":"1"}},{"base_weights":[7.2433805E-4,-1.0092725E-3,7.485994E-2,4.343335E-2,-2.0634253E-3,3.60775E-2,4.1728593E-2,8.9585787E-4,1.5277663E-2,4.057958E-3,-1.0958027E-2,5.680084E-3,1.916027E-2,-4.947916E-4,7.543934E-2,-2.2123738E-1,-2.2717107E-4,2.3958208E-3,1.6021729E-4,3.526537E-3,-9.223267E-2,-1.6572088E-2,5.8379E-2,-4.682827E-2,-9.6570216E-2,5.075195E-2,-5.266566E-3,-1.0378901E-3,1.9545646E-2,-3.235753E-2,-2.1155835E-3,-1.6825933E-2,5.16201E-3,-3.9723516E-3,-1.7100371E-2,5.0119974E-2,-1.9042356E-3,2.6876861E-2,-2.8555081E-3],"categories":[],"categories_nodes":[],"categories_segments":[],"categories_sizes":[],"default_left":[0,0,0,0,0,0,0,0,0,0,0,0,0,0,0,0,0,0,0,0,0,0,0,0,0,0,0,0,0,0,0,0,0,0,0,0,0,0,0],"id":28,"left_children":[1,3,5,7,9,-1,11,-1,-1,13,15,17,-1,19,21,23,25,-1,-1,27,29,31,-1,33,-1,35,37,-1,-1,-1,-1,-1,-1,-1,-1,-1,-1,-1,-1],"loss_changes":[3.3748385E-2,1.2129893E-2,4.006449E-3,1.6661528E-3,1.376518E-2,0E0,3.6276123E-3,0E0,0E0,4.8784558E-2,2.3236692E-1,3.1334952E-5,0E0,5.2710216E-2,1.0189937E-1,7.2708935E-2,2.5700776E-2,0E0,0E0,5.9207603E-2,7.2254725E-3,8.9735435E-3,0E0,2.7027773E-4,0E0,6.0833905E-2,3.7553824E-2,0E0,0E0,0E0,0E0,0E0,0E0,0E0,0E0,0E0,0E0,0E0,0E0],"parents":[2147483647,0,0,1,1,2,2,3,3,4,4,6,6,9,9,10,10,11,11,13,13,14,14,15,15,16,16,19,19,20,20,21,21,23,23,25,25,26,26],"right_children":[2,4,6,8,10,-1,12,-1,-1,14,16,18,-1,20,22,24,26,-1,-1,28,30,32,-1,34,-1,36,38,-1,-1,-1,-1,-1,-1,-1,-1,-1,-1,-1,-1],"split_conditions":[3.3105304E0,2.00001E0,-1.020297E0,-6.509524E-1,1.5981849E-1,3.60775E-2,4.5708176E-1,8.9585787E-4,1.5277663E-2,1.03920564E-1,1.6901864E-1,4.1268337E-1,1.916027E-2,2.1305025E-2,-2.1277103E-1,-3.4111694E-2,2.00001E0,2.3958208E-3,1.6021729E-4,-1.1897412E-1,8.264265E-1,-7.9399395E-1,5.8379E-2,4.5708176E-1,-9.6570216E-2,5.816317E-1,2.9921478E-1,-1.0378901E-3,1.9545646E-2,-3.235753E-2,-2.1155835E-3,-1.6825933E-2,5.16201E-3,-3.9723516E-3,-1.7100371E-2,5.0119974E-2,-1.9042356E-3,2.6876861E-2,-2.8555081E-3],"split_indices":[1,81,0,0,2,0,0,0,0,2,2,2,0,2,1,1,83,0,0,2,0,1,0,0,0,2,2,0,0,0,0,0,0,0,0,0,0,0,0],"split_type":[0,0,0,0,0,0,0,0,0,0,0,0,0,0,0,0,0,0,0,0,0,0,0,0,0,0,0,0,0,0,0,0,0,0,0,0,0,0,0],"sum_hessian":[2.61E2,2.56E2,5E0,5E0,2.51E2,1E0,4E0,1E0,4E0,1.49E2,1.02E2,2E0,2E0,1.41E2,8E0,4E0,9.8E1,1E0,1E0,1.36E2,5E0,5E0,3E0,2E0,2E0,8E0,9E1,1.23E2,1.3E1,4E0,1E0,2E0,3E0,1E0,1E0,2E0,6E0,3E0,8.7E1],"tree_param":{"num_deleted":"0","num_feature":"87","num_nodes":"39","size_leaf_vector":"1"}},{"base_weights":[7.333639E-4,-2.4050458E-3,2.9312968E-2,8.629463E-3,-7.081962E-3,4.3241788E-2,1.8954344E-2,-7.093463E-3,7.9323545E-2,-7.753126E-2,-2.5783228E-3,-4.612003E-3,4.4868886E-2,-4.1736245E-2,-2.4184943E-3,-1.7049909E-3,1.0380261E-1,4.4795787E-3,-2.0166743E-1,4.1408364E-2,-8.529528E-3,-2.873426E-2,3.234005E-2,-2.9123425E-3,6.1119556E-2,1.3849815E-2,-3.6540277E-2,7.296646E-3,-1.1967964E-2,5.1524164E-3,1.1151963E-1,9.10897E-3,-4.8949025E-3,6.7319875E-3,-8.5154966E-2,1.3096125E-1,7.081032E-5,-4.5748036E-2,-1.5771181E-3,-1.5895456E-2,3.742854E-2,-2.6483536E-3,2.0463372E-2,3.925681E-3,-3.782058E-3,2.1797746E-2,1.3820648E-2,-3.2506157E-2,5.928464E-3,-1.4698424E-3,-2.3830185E-2,3.5966E-2,6.687498E-3,-6.7151967E-3,2.8336914E-3,2.0962715E-2,5.0626468E-2,1.3117591E-2,-2.6175702E-2,4.634417E-3,-2.45462E-2,1.614061E-2,-1.9791748E-3,2.0364763E-3,1.48063665E-2,3.894806E-4,-2.173233E-3,6.083107E-3,1.361847E-4],"categories":[],"categories_nodes":[],"categories_segments":[],"categories_sizes":[],"default_left":[0,0,0,0,0,0,0,0,0,0,0,0,0,0,0,0,0,0,0,0,0,0,0,0,0,0,0,0,0,0,0,0,0,0,0,0,0,0,0,0,0,0,0,0,0,0,0,0,0,0,0,0,0,0,0,0,0,0,0,0,0,0,0,0,0,0,0,0,0],"id":29,"left_children":[1,3,5,7,9,-1,11,13,15,17,19,21,23,-1,25,27,29,31,33,35,37,39,41,43,45,47,49,-1,-1,-1,51,-1,53,-1,-1,55,57,59,61,-1,63,65,-1,-1,-1,-1,67,-1,-1,-1,-1,-1,-1,-1,-1,-1,-1,-1,-1,-1,-1,-1,-1,-1,-1,-1,-1,-1,-1],"loss_changes":[2.357046E-2,1.2292084E-2,2.8193444E-2,7.948044E-2,5.278557E-2,0E0,1.5474714E-2,3.6079735E-2,2.5962524E-2,1.027085E-1,4.171345E-2,1.3408405E-2,9.495724E-3,0E0,3.2702092E-2,4.9460097E-3,4.769765E-3,1.8471457E-3,8.0040365E-2,7.0326775E-2,3.6154013E-2,1.6423527E-2,7.711102E-3,7.853378E-4,3.9080977E-3,3.1038651E-2,2.5397427E-2,0E0,0E0,0E0,4.0466934E-3,0E0,1.7162485E-3,0E0,0E0,2.0600036E-3,5.718379E-2,4.9829062E-2,3.3438202E-2,0E0,7.6121837E-4,8.195566E-5,0E0,0E0,0E0,0E0,2.496965E-4,0E0,0E0,0E0,0E0,0E0,0E0,0E0,0E0,0E0,0E0,0E0,0E0,0E0,0E0,0E0,0E0,0E0,0E0,0E0,0E0,0E0,0E0],"parents":[2147483647,0,0,1,1,2,2,3,3,4,4,6,6,7,7,8,8,9,9,10,10,11,11,12,12,14,14,15,15,16,16,17,17,18,18,19,19,20,20,21,21,22,22,23,23,24,24,25,25,26,26,30,30,32,32,35,35,36,36,37,37,38,38,40,40,41,41,46,46],"right_children":[2,4,6,8,10,-1,12,14,16,18,20,22,24,-1,26,28,30,32,34,36,38,40,42,44,46,48,50,-1,-1,-1,52,-1,54,-1,-1,56,58,60,62,-1,64,66,-1,-1,-1,-1,68,-1,-1,-1,-1,-1,-1,-1,-1,-1,-1,-1,-1,-1,-1,-1,-1,-1,-1,-1,-1,-1,-1],"split_conditions":[8.6614573E-1,-7.4161094E-1,8.835476E-1,-8.1595564E-1,-6.300939E-1,4.3241788E-2,8.114497E-1,2.00001E0,-7.5919014E-1,-6.7566115E-1,2.00001E0,1.1957712E0,-1.3896418E0,-4.1736245E-2,-1.057576E0,-7.684712E-1,2.00001E0,2.00001E0,2.00001E0,-7.2508685E-2,-3.7341884E-1,3.3105304E0,2.0842776E0,1.4855702E0,8.773706E-2,2.00001E0,-4.0303162E-1,7.296646E-3,-1.1967964E-2,5.1524164E-3,2.4547857E-1,9.10897E-3,-7.464288E-1,6.7319875E-3,-8.5154966E-2,-3.1087637E-1,7.0024776E-1,-5.3135484E-1,-2.5837043E-1,-1.5895456E-2,4.5708176E-1,-9.7858465E-1,2.0463372E-2,3.925681E-3,-3.782058E-3,2.1797746E-2,1.2895916E0,-3.2506157E-2,5.928464E-3,-1.4698424E-3,-2.3830185E-2,3.5966E-2,6.687498E-3,-6.7151967E-3,2.8336914E-3,2.0962715E-2,5.0626468E-2,1.3117591E-2,-2.6175702E-2,4.634417E-3,-2.45462E-2,1.614061E-2,-1.9791748E-3,2.0364763E-3,1.48063665E-2,3.894806E-4,-2.173233E-3,6.083107E-3,1.361847E-4],"split_indices":[1,2,1,2,2,0,2,58,1,1,59,0,0,0,2,1,81,50,58,2,2,1,1,2,0,76,1,0,0,0,1,0,1,0,0,2,1,2,2,0,0,2,0,0,0,0,1,0,0,0,0,0,0,0,0,0,0,0,0,0,0,0,0,0,0,0,0,0,0],"split_type":[0,0,0,0,0,0,0,0,0,0,0,0,0,0,0,0,0,0,0,0,0,0,0,0,0,0,0,0,0,0,0,0,0,0,0,0,0,0,0,0,0,0,0,0,0,0,0,0,0,0,0,0,0,0,0,0,0,0,0,0,0,0,0,0,0,0,0,0,0],"sum_hessian":[2.61E2,2.36E2,2.5E1,7E1,1.66E2,1E0,2.4E1,5.8E1,1.2E1,9E0,1.57E2,1.3E1,1.1E1,1E0,5.7E1,3E0,9E0,6E0,3E0,1.8E1,1.39E2,8E0,5E0,3E0,8E0,3.9E1,1.8E1,2E0,1E0,1E0,8E0,1E0,5E0,1E0,2E0,5E0,1.3E1,2.1E1,1.18E2,6E0,2E0,3E0,2E0,1E0,2E0,6E0,2E0,1E0,3.8E1,1.1E1,7E0,7E0,1E0,2E0,3E0,3E0,2E0,9E0,4E0,8E0,1.3E1,9E0,1.09E2,1E0,1E0,2E0,1E0,1E0,1E0],"tree_param":{"num_deleted":"0","num_feature":"87","num_nodes":"69","size_leaf_vector":"1"}},{"base_weights":[5.9023814E-4,-2.319675E-3,2.234861E-2,-4.5680764E-4,-3.9704844E-2,1.7005563E-2,2.7396012E-2,-2.3850282E-3,1.0522747E-1,3.2404263E-2,-5.9329562E-2,4.262511E-2,5.751859E-3,4.4979908E-2,-3.475445E-3,3.8006976E-2,6.1260224E-3,4.6675876E-2,-3.2093957E-2,-9.989532E-2,1.6351461E-2,3.5513241E-3,9.057951E-2,-1.2663269E-2,1.265868E-2,-1.855116E-2,2.6143046E-2,-1.4692143E-2,3.017946E-3,-4.2118445E-2,-1.2597561E-2,-1.3996411E-2,5.2905083E-2,-1.2965838E-2,1.5051365E-2,3.675556E-2,3.9093655E-2,-6.4353943E-3,2.3435134E-2,-3.7352085E-2,-3.5064055E-3,2.4291206E-2,-1.6446711E-4,-6.617475E-3,9.485722E-4,2.679763E-2,-2.9903413E-3,-6.1647897E-3,3.3016206E-4,1.373291E-4,5.9289937E-3,-1.8473626E-3,1.9439507E-2,-1.2905503E-2,3.8785937E-3,1.38444705E-2,-7.8775204E-4],"categories":[],"categories_nodes":[],"categories_segments":[],"categories_sizes":[],"default_left":[0,0,0,0,0,0,0,0,0,0,0,0,0,0,0,0,0,0,0,0,0,0,0,0,0,0,0,0,0,0,0,0,0,0,0,0,0,0,0,0,0,0,0,0,0,0,0,0,0,0,0,0,0,0,0,0,0],"id":30,"left_children":[1,3,5,7,9,11,-1,13,15,17,19,21,23,25,27,-1,-1,-1,-1,29,31,33,35,-1,37,-1,-1,39,41,-1,43,-1,45,47,49,-1,51,53,55,-1,-1,-1,-1,-1,-1,-1,-1,-1,-1,-1,-1,-1,-1,-1,-1,-1,-1],"loss_changes":[1.6640365E-2,1.6139178E-2,9.871101E-3,4.5490712E-2,1.7488863E-2,8.404269E-3,0E0,1.1467134E-2,4.693676E-3,6.8153426E-2,2.9263958E-2,1.6542163E-2,7.822277E-3,2.7907662E-2,1.5703738E-2,0E0,0E0,0E0,0E0,1.9444447E-2,1.1680684E-2,1.3348417E-3,1.7879382E-3,0E0,4.266143E-3,0E0,0E0,2.4606656E-2,3.812939E-2,0E0,5.1703234E-4,0E0,7.7599343E-3,3.4263072E-4,2.6601012E-4,0E0,3.8885511E-3,6.223318E-3,7.8162085E-3,0E0,0E0,0E0,0E0,0E0,0E0,0E0,0E0,0E0,0E0,0E0,0E0,0E0,0E0,0E0,0E0,0E0,0E0],"parents":[2147483647,0,0,1,1,2,2,3,3,4,4,5,5,7,7,8,8,9,9,10,10,11,11,12,12,13,13,14,14,19,19,20,20,21,21,22,22,24,24,27,27,28,28,30,30,32,32,33,33,34,34,36,36,37,37,38,38],"right_children":[2,4,6,8,10,12,-1,14,16,18,20,22,24,26,28,-1,-1,-1,-1,30,32,34,36,-1,38,-1,-1,40,42,-1,44,-1,46,48,50,-1,52,54,56,-1,-1,-1,-1,-1,-1,-1,-1,-1,-1,-1,-1,-1,-1,-1,-1,-1,-1],"split_conditions":[7.327313E-1,7.1648955E-1,9.881481E0,5.888757E-1,-4.906976E-1,-4.2099944E-1,2.7396012E-2,2.00001E0,2.7542448E-1,8.264265E-1,8.264265E-1,-9.088865E-1,3.457267E-1,-4.595193E-1,8.773706E-2,3.8006976E-2,6.1260224E-3,4.6675876E-2,-3.2093957E-2,3.6073503E-1,-4.4423217E-1,2.00001E0,1.1957712E0,-1.2663269E-2,1.2977124E0,-1.855116E-2,2.6143046E-2,2.00001E0,2.00001E0,-4.2118445E-2,-2.8670206E0,-1.3996411E-2,-7.2508685E-2,1.1957712E0,2.00001E0,3.675556E-2,1.5111755E0,-1.020297E0,1.1216995E0,-3.7352085E-2,-3.5064055E-3,2.4291206E-2,-1.6446711E-4,-6.617475E-3,9.485722E-4,2.679763E-2,-2.9903413E-3,-6.1647897E-3,3.3016206E-4,1.373291E-4,5.9289937E-3,-1.8473626E-3,1.9439507E-2,-1.2905503E-2,3.8785937E-3,1.38444705E-2,-7.8775204E-4],"split_indices":[1,1,1,1,2,2,0,72,2,0,0,2,2,2,0,0,0,0,0,2,2,60,0,0,1,0,0,57,59,0,0,0,2,0,75,0,1,0,2,0,0,0,0,0,0,0,0,0,0,0,0,0,0,0,0,0,0],"split_type":[0,0,0,0,0,0,0,0,0,0,0,0,0,0,0,0,0,0,0,0,0,0,0,0,0,0,0,0,0,0,0,0,0,0,0,0,0,0,0,0,0,0,0,0,0,0,0,0,0,0,0,0,0,0,0,0,0],"sum_hessian":[2.61E2,2.31E2,3E1,2.21E2,1E1,2.9E1,1E0,2.18E2,3E0,2E0,8E0,8E0,2.1E1,4E0,2.14E2,2E0,1E0,1E0,1E0,5E0,3E0,5E0,3E0,2E0,1.9E1,1E0,3E0,7.8E1,1.36E2,3E0,2E0,1E0,2E0,2E0,3E0,1E0,2E0,7E0,1.2E1,1E0,7.7E1,5E0,1.31E2,1E0,1E0,1E0,1E0,1E0,1E0,1E0,2E0,1E0,1E0,2E0,5E0,6E0,6E0],"tree_param":{"num_deleted":"0","num_feature":"87","num_nodes":"57","size_leaf_vector":"1"}},{"base_weights":[7.373721E-4,-1.524408E-3,2.2240024E-2,6.876702E-4,-5.250993E-2,9.651656E-3,4.8654128E-2,-4.451577E-2,1.8588086E-3,-5.4158185E-2,2.5121534E-2,-6.116581E-3,-3.547676E-2,-3.0740742E-3,1.7699925E-2,9.98303E-3,-8.433612E-2,3.265007E-2,1.4987556E-2,-4.7880728E-2,1.1305928E-2,3.0599225E-3,-4.049117E-2,-3.4167554E-2,2.224592E-2,-7.2069964E-3,-2.8929783E-2,7.195592E-3,2.328644E-2,-1.712029E-2,-4.4260384E-3,2.6693525E-2,2.2450904E-4,-6.268863E-2,-2.405877E-3,-3.4134667E-3,1.3196369E-2,-1.0508251E-2,3.5219237E-3],"categories":[],"categories_nodes":[],"categories_segments":[],"categories_sizes":[],"default_left":[0,0,0,0,0,0,0,0,0,0,0,0,0,0,0,0,0,0,0,0,0,0,0,0,0,0,0,0,0,0,0,0,0,0,0,0,0,0,0],"id":31,"left_children":[1,3,5,7,-1,9,-1,11,13,15,17,19,-1,21,23,-1,25,-1,27,29,-1,31,33,-1,35,-1,-1,37,-1,-1,-1,-1,-1,-1,-1,-1,-1,-1,-1],"loss_changes":[1.27760805E-2,9.1468275E-2,4.2475224E-2,1.2576465E-2,0E0,2.5051668E-2,0E0,1.6266037E-2,1.81053E-2,1.5999462E-2,1.5335565E-2,1.0951431E-2,0E0,4.0748294E-2,3.5435464E-2,0E0,6.016623E-4,0E0,8.714249E-3,7.1065966E-5,0E0,3.032008E-2,1.3508715E-1,0E0,3.9977487E-2,0E0,0E0,3.8648415E-3,0E0,0E0,0E0,0E0,0E0,0E0,0E0,0E0,0E0,0E0,0E0],"parents":[2147483647,0,0,1,1,2,2,3,3,5,5,7,7,8,8,9,9,10,10,11,11,13,13,14,14,16,16,18,18,19,19,21,21,22,22,24,24,27,27],"right_children":[2,4,6,8,-1,10,-1,12,14,16,18,20,-1,22,24,-1,26,-1,28,30,-1,32,34,-1,36,-1,-1,38,-1,-1,-1,-1,-1,-1,-1,-1,-1,-1,-1],"split_conditions":[1.3391577E0,1.286187E0,4.5708176E-1,2.00001E0,-5.250993E-2,-7.355596E-2,4.8654128E-2,-6.509524E-1,4.556639E-1,2.00001E0,2.00001E0,4.9417347E-2,-3.547676E-2,1.5981849E-1,2.00001E0,9.98303E-3,-2.497676E0,3.265007E-2,3.3418536E0,-1.7589865E0,1.1305928E-2,2.00001E0,2.00001E0,-3.4167554E-2,-2.8160766E-1,-7.2069964E-3,-2.8929783E-2,2.00001E0,2.328644E-2,-1.712029E-2,-4.4260384E-3,2.6693525E-2,2.2450904E-4,-6.268863E-2,-2.405877E-3,-3.4134667E-3,1.3196369E-2,-1.0508251E-2,3.5219237E-3],"split_indices":[2,2,0,82,0,1,0,0,2,20,73,1,0,2,65,0,0,0,1,0,0,83,83,0,0,0,0,66,0,0,0,0,0,0,0,0,0,0,0],"split_type":[0,0,0,0,0,0,0,0,0,0,0,0,0,0,0,0,0,0,0,0,0,0,0,0,0,0,0,0,0,0,0,0,0,0,0,0,0,0,0],"sum_hessian":[2.61E2,2.37E2,2.4E1,2.35E2,2E0,2.3E1,1E0,5E0,2.3E2,4E0,1.9E1,4E0,1E0,1.76E2,5.4E1,1E0,3E0,1E0,1.8E1,2E0,2E0,1.52E2,2.4E1,1E0,5.3E1,1E0,2E0,1.7E1,1E0,1E0,1E0,3E0,1.49E2,3E0,2.1E1,2.1E1,3.2E1,1E0,1.6E1],"tree_param":{"num_deleted":"0","num_feature":"87","num_nodes":"39","size_leaf_vector":"1"}},{"base_weights":[1.7515552E-4,-4.8285246E-2,1.1136316E-3,1.6144993E-3,-2.5757123E-2,-2.206235E-2,1.6902697E-3,-2.135253E-2,2.2529277E-3,-3.608847E-3,8.23543E-3,-2.1856371E-3,-2.8080441E-2,8.3102584E-2,4.4859354E-3,1.4113892E-2,-1.1193629E-3,3.9473593E-2,-2.3891652E-2,3.8004115E-2,7.287357E-4],"categories":[],"categories_nodes":[],"categories_segments":[],"categories_sizes":[],"default_left":[0,0,0,0,0,0,0,0,0,0,0,0,0,0,0,0,0,0,0,0,0],"id":32,"left_children":[1,3,5,-1,-1,-1,7,-1,9,11,13,15,-1,17,19,-1,-1,-1,-1,-1,-1],"loss_changes":[1.19692525E-2,1.05438735E-2,1.12308925E-2,0E0,0E0,0E0,1.0696912E-2,0E0,9.00715E-3,1.6445613E-2,3.5277884E-2,9.991348E-3,0E0,5.781314E-2,3.0354727E-2,0E0,0E0,0E0,0E0,0E0,0E0],"parents":[2147483647,0,0,1,1,2,2,6,6,8,8,9,9,10,10,11,11,13,13,14,14],"right_children":[2,4,6,-1,-1,-1,8,-1,10,12,14,16,-1,18,20,-1,-1,-1,-1,-1,-1],"split_conditions":[2.00001E0,-1.7869934E-2,2.00001E0,1.6144993E-3,-2.5757123E-2,-2.206235E-2,2.00001E0,-2.135253E-2,-1.5360463E-1,-1.5940525E-1,-7.355596E-2,2.00001E0,-2.8080441E-2,3.457267E-1,2.00001E0,1.4113892E-2,-1.1193629E-3,3.9473593E-2,-2.3891652E-2,3.8004115E-2,7.287357E-4],"split_indices":[62,1,74,0,0,0,68,0,1,1,1,85,0,2,69,0,0,0,0,0,0],"split_type":[0,0,0,0,0,0,0,0,0,0,0,0,0,0,0,0,0,0,0,0,0],"sum_hessian":[2.61E2,4E0,2.57E2,2E0,2E0,1E0,2.56E2,1E0,2.55E2,1.29E2,1.26E2,1.28E2,1E0,5E0,1.21E2,3E0,1.25E2,4E0,1E0,1E0,1.2E2],"tree_param":{"num_deleted":"0","num_feature":"87","num_nodes":"21","size_leaf_vector":"1"}},{"base_weights":[1.4522603E-5,-1.96906E-3,1.8897647E-2,-1.9957343E-4,-1.405123E-1,8.227626E-3,4.1246727E-2,-4.9884558E-2,6.542442E-4,-1.069901E-2,-5.253153E-2,2.7643276E-2,5.728048E-4,-2.0605661E-2,9.777546E-4,-2.9754327E-3,1.366555E-2,1.4805872E-2,-4.2221863E-2,1.991961E-3,-2.7395941E-2,4.64899E-2,-5.647426E-3,-1.4789023E-2,2.732614E-2,-2.0002736E-2,4.457315E-3,-4.199325E-4,1.692458E-2,-4.516697E-2,-1.0721263E-3,-1.2514733E-2,3.042586E-2,9.758758E-3,-8.703494E-3,4.067123E-3,-6.950898E-3,-9.869528E-4,1.2389636E-2,2.4094821E-3,-4.0369036E-4],"categories":[],"categories_nodes":[],"categories_segments":[],"categories_sizes":[],"default_left":[0,0,0,0,0,0,0,0,0,0,0,0,0,0,0,0,0,0,0,0,0,0,0,0,0,0,0,0,0,0,0,0,0,0,0,0,0,0,0,0,0],"id":33,"left_children":[1,3,5,7,9,11,-1,13,15,-1,-1,-1,17,-1,-1,19,21,23,25,27,29,31,33,35,37,-1,39,-1,-1,-1,-1,-1,-1,-1,-1,-1,-1,-1,-1,-1,-1],"loss_changes":[9.850745E-3,5.8317754E-2,3.050312E-2,1.0044209E-2,4.6362095E-3,1.5364021E-2,0E0,4.2204754E-3,1.1044513E-2,0E0,0E0,0E0,1.4634416E-2,0E0,0E0,2.225362E-2,3.259328E-2,7.0737754E-3,7.1461285E-3,2.8321156E-2,9.041457E-2,9.628779E-2,3.0378634E-2,1.7394627E-3,5.6970874E-3,0E0,7.30319E-5,0E0,0E0,0E0,0E0,0E0,0E0,0E0,0E0,0E0,0E0,0E0,0E0,0E0,0E0],"parents":[2147483647,0,0,1,1,2,2,3,3,4,4,5,5,7,7,8,8,12,12,15,15,16,16,17,17,18,18,19,19,20,20,21,21,22,22,23,23,24,24,26,26],"right_children":[2,4,6,8,10,12,-1,14,16,-1,-1,-1,18,-1,-1,20,22,24,26,28,30,32,34,36,38,-1,40,-1,-1,-1,-1,-1,-1,-1,-1,-1,-1,-1,-1,-1,-1],"split_conditions":[1.3391577E0,1.286187E0,4.5708176E-1,2.00001E0,-1.020297E0,2.00001E0,4.1246727E-2,4.5708176E-1,5.3154194E-1,-1.069901E-2,-5.253153E-2,2.7643276E-2,-2.8160766E-1,-2.0605661E-2,9.777546E-4,1.5981849E-1,7.899827E-1,-1.7589865E0,2.1647543E-1,1.03920564E-1,1.6901864E-1,-1.5360463E-1,-1.7680714E-1,-3.2363653E0,2.00001E0,-2.0002736E-2,8.773706E-2,-4.199325E-4,1.692458E-2,-4.516697E-2,-1.0721263E-3,-1.2514733E-2,3.042586E-2,9.758758E-3,-8.703494E-3,4.067123E-3,-6.950898E-3,-9.869528E-4,1.2389636E-2,2.4094821E-3,-4.0369036E-4],"split_indices":[2,2,0,62,0,73,0,0,2,0,0,0,0,0,0,2,2,0,1,2,2,1,1,0,60,0,0,0,0,0,0,0,0,0,0,0,0,0,0,0,0],"split_type":[0,0,0,0,0,0,0,0,0,0,0,0,0,0,0,0,0,0,0,0,0,0,0,0,0,0,0,0,0,0,0,0,0,0,0,0,0,0,0,0,0],"sum_hessian":[2.61E2,2.37E2,2.4E1,2.35E2,2E0,2.3E1,1E0,3E0,2.32E2,1E0,1E0,1E0,2.2E1,2E0,1E0,1.82E2,5E1,1.7E1,5E0,1.52E2,3E1,1.8E1,3.2E1,5E0,1.2E1,3E0,2E0,1.44E2,8E0,4E0,2.6E1,7E0,1.1E1,1.2E1,2E1,1E0,4E0,4E0,8E0,1E0,1E0],"tree_param":{"num_deleted":"0","num_feature":"87","num_nodes":"41","size_leaf_vector":"1"}},{"base_weights":[-1.2044347E-4,-6.4204226E-4,2.0402528E-2,-1.868999E-2,-1.6528116E-4,-7.343461E-4,4.8829395E-2,-1.7988825E-2,-2.7056728E-4,1.782589E-2,4.147339E-3,3.990549E-2,-9.0219587E-4,5.7950594E-2,-2.2671534E-2,-1.393633E-2,-1.0689817E-4],"categories":[],"categories_nodes":[],"categories_segments":[],"categories_sizes":[],"default_left":[0,0,0,0,0,0,0,0,0,0,0,0,0,0,0,0,0],"id":34,"left_children":[1,3,-1,-1,5,7,9,-1,11,-1,-1,13,15,-1,-1,-1,-1],"loss_changes":[9.354079E-3,7.6620854E-3,0E0,0E0,7.2849574E-3,7.0707463E-3,2.906872E-4,0E0,6.557723E-3,0E0,0E0,8.539174E-2,6.299293E-3,0E0,0E0,0E0,0E0],"parents":[2147483647,0,0,1,1,4,4,5,5,6,6,8,8,11,11,12,12],"right_children":[2,4,-1,-1,6,8,10,-1,12,-1,-1,14,16,-1,-1,-1,-1],"split_conditions":[1.5651159E0,2.00001E0,2.0402528E-2,-1.868999E-2,3.3418536E0,2.00001E0,-1.020297E0,-1.7988825E-2,2.00001E0,1.782589E-2,4.147339E-3,-7.355596E-2,2.00001E0,5.7950594E-2,-2.2671534E-2,-1.393633E-2,-1.0689817E-4],"split_indices":[0,74,0,0,1,68,0,0,67,0,0,1,37,0,0,0,0],"split_type":[0,0,0,0,0,0,0,0,0,0,0,0,0,0,0,0,0],"sum_hessian":[2.61E2,2.6E2,1E0,1E0,2.59E2,2.57E2,2E0,1E0,2.56E2,1E0,1E0,3E0,2.53E2,1E0,2E0,